{"learner":{"attributes":{"scikit_learn":"{\"_estimator_type\": \"classifier\"}"},"feature_names":["stroke_severity","prior_disability","age","infarction","onset_to_arrival_time","precise_onset_known","onset_during_sleep","arrival_to_scan_time","afib_anticoagulant","team_1","team_2","team_3","team_4","team_5","team_6","team_7","team_8","team_9","team_10","team_11","team_12","team_13","team_14","team_15","team_16","team_17","team_18","team_19","team_20","team_21","team_22","team_23","team_24","team_25","team_26","team_27","team_28","team_29","team_30","team_31","team_32","team_33","team_34","team_35","team_36","team_37","team_38","team_39","team_40","team_41","team_42","team_43","team_44","team_45","team_46","team_47","team_48","team_49","team_50","team_51","team_52","team_53","team_54","team_55","team_56","team_57","team_58","team_59","team_60","team_61","team_62","team_63","team_64","team_65","team_66","team_67","team_68","team_69","team_70","team_71","team_72","team_73","team_74","team_75","team_76","team_77","team_78","team_79","team_80","team_81","team_82","team_83","team_84","team_85","team_86","team_87","team_88","team_89","team_90","team_91","team_92","team_93","team_94","team_95","team_96","team_97","team_98","team_99","team_100","team_101","team_102","team_103","team_104","team_105","team_106","team_107","team_108","team_109","team_110","team_111","team_112","team_113","team_114","team_115","team_116","team_117","team_118","team_119"],"feature_types":["int","int","float","float","float","int","int","float","float","int","int","int","int","int","int","int","int","int","int","int","int","int","int","int","int","int","int","int","int","int","int","int","int","int","int","int","int","int","int","int","int","int","int","int","int","int","int","int","int","int","int","int","int","int","int","int","int","int","int","int","int","int","int","int","int","int","int","int","int","int","int","int","int","int","int","int","int","int","int","int","int","int","int","int","int","int","int","int","int","int","int","int","int","int","int","int","int","int","int","int","int","int","int","int","int","int","int","int","int","int","int","int","int","int","int","int","int","int","int","int","int","int","int","int","int","int","int","int"],"gradient_booster":{"model":{"gbtree_model_param":{"num_parallel_tree":"1","num_trees":"100"},"iteration_indptr":[0,1,2,3,4,5,6,7,8,9,10,11,12,13,14,15,16,17,18,19,20,21,22,23,24,25,26,27,28,29,30,31,32,33,34,35,36,37,38,39,40,41,42,43,44,45,46,47,48,49,50,51,52,53,54,55,56,57,58,59,60,61,62,63,64,65,66,67,68,69,70,71,72,73,74,75,76,77,78,79,80,81,82,83,84,85,86,87,88,89,90,91,92,93,94,95,96,97,98,99,100],"tree_info":[0,0,0,0,0,0,0,0,0,0,0,0,0,0,0,0,0,0,0,0,0,0,0,0,0,0,0,0,0,0,0,0,0,0,0,0,0,0,0,0,0,0,0,0,0,0,0,0,0,0,0,0,0,0,0,0,0,0,0,0,0,0,0,0,0,0,0,0,0,0,0,0,0,0,0,0,0,0,0,0,0,0,0,0,0,0,0,0,0,0,0,0,0,0,0,0,0,0,0,0],"trees":[{"base_weights":[-2.096399E-2,-7.6890445E-1,2.4460551E-1,-9.5453554E-1,7.851825E-1,-1.1298902E0,-5.409259E-1,-2.2211424E-1,1.2542686E0,-1.2882532E0,-9.405667E-1,-1.0430156E0,-2.846305E-1,1.5133497E-1,-7.5496346E-1,1.5172106E0,-7.4354655E-1,-1.212325E0,-1.3979158E0,-1.2484776E0,-7.85401E-1,-1.0698365E0,2.1876323E-1,-1.6170363E-1,-1.3018062E0,3.5018125E-1,-1.0994754E0,-4.833963E-1,-1.1263491E0,1.8398575E0,6.7672575E-1,-1.0493741E0,-5.745548E-1,-5.7315737E-1,-6.844612E-1,-7.0351386E-1,-1.7091084E-1,-5.6707484E-1,-6.801196E-1,-3.5273474E-1,-7.016816E-1,-4.5855123E-1,-6.293209E-1,-1.19064875E-1,5.0279665E-1,-3.3433877E-3,-4.2282647E-1,5.859066E-2,-6.5744776E-1,2.8485376E-1,-5.200948E-1,-5.6728524E-1,3.887334E-1,-1.5697385E-1,-6.1392295E-1,-4.7832254E-1,-6.3717127E-1,6.382638E-1,1.0162576E0,4.7538885E-1,-5.0645556E-2,-4.510701E-1,-6.555513E-1,-1.2967491E-1,-3.7810743E-1],"categories":[],"categories_nodes":[],"categories_segments":[],"categories_sizes":[],"default_left":[0,0,0,0,0,0,0,0,1,0,0,0,1,1,0,0,0,0,0,0,1,0,0,0,0,0,0,1,0,0,0,0,0,0,0,0,0,0,0,0,0,0,0,0,0,0,0,0,0,0,0,0,0,0,0,0,0,0,0,0,0,0,0,0,0],"id":0,"left_children":[1,-1,3,5,7,9,11,13,15,17,19,21,23,25,27,29,31,33,35,37,39,41,43,45,47,49,51,53,55,57,59,61,63,-1,-1,-1,-1,-1,-1,-1,-1,-1,-1,-1,-1,-1,-1,-1,-1,-1,-1,-1,-1,-1,-1,-1,-1,-1,-1,-1,-1,-1,-1,-1,-1],"loss_changes":[9.550046E3,0E0,1.3078945E4,4.5410254E2,6.5713867E3,1.3076514E2,2.4015405E2,8.795449E2,4.9854873E3,1.8240967E1,9.498828E1,2.1591736E1,1.546431E2,6.46853E2,1.8313818E2,2.2726465E3,5.6466858E1,1.3132568E1,8.882202E0,7.0356445E0,6.511536E1,1.6670837E1,5.260173E0,1.17262985E2,2.6315765E0,6.853368E2,2.4382782E1,1.3253987E2,1.8081665E1,6.549414E2,4.9637793E2,1.3915222E1,4.065576E1,0E0,0E0,0E0,0E0,0E0,0E0,0E0,0E0,0E0,0E0,0E0,0E0,0E0,0E0,0E0,0E0,0E0,0E0,0E0,0E0,0E0,0E0,0E0,0E0,0E0,0E0,0E0,0E0,0E0,0E0,0E0,0E0],"parents":[2147483647,0,0,2,2,3,3,4,4,5,5,6,6,7,7,8,8,9,9,10,10,11,11,12,12,13,13,14,14,15,15,16,16,17,17,18,18,19,19,20,20,21,21,22,22,23,23,24,24,25,25,26,26,27,27,28,28,29,29,30,30,31,31,32,32],"right_children":[2,-1,4,6,8,10,12,14,16,18,20,22,24,26,28,30,32,34,36,38,40,42,44,46,48,50,52,54,56,58,60,62,64,-1,-1,-1,-1,-1,-1,-1,-1,-1,-1,-1,-1,-1,-1,-1,-1,-1,-1,-1,-1,-1,-1,-1,-1,-1,-1,-1,-1,-1,-1,-1,-1],"split_conditions":[1E0,-7.6890445E-1,4E0,3E0,1E0,2E0,1E0,2E0,1E0,4.1E1,1E0,1E0,1E0,1E0,3.2E1,2E0,8E0,8.25E1,1E0,3.2E1,1E0,1E0,2.00001E0,2E0,2.3E1,1E0,1E0,1E0,4.8E1,6E0,3.4E1,2E0,1E0,-5.7315737E-1,-6.844612E-1,-7.0351386E-1,-1.7091084E-1,-5.6707484E-1,-6.801196E-1,-3.5273474E-1,-7.016816E-1,-4.5855123E-1,-6.293209E-1,-1.19064875E-1,5.0279665E-1,-3.3433877E-3,-4.2282647E-1,5.859066E-2,-6.5744776E-1,2.8485376E-1,-5.200948E-1,-5.6728524E-1,3.887334E-1,-1.5697385E-1,-6.1392295E-1,-4.7832254E-1,-6.3717127E-1,6.382638E-1,1.0162576E0,4.7538885E-1,-5.0645556E-2,-4.510701E-1,-6.555513E-1,-1.2967491E-1,-3.7810743E-1],"split_indices":[3,0,0,0,5,0,5,1,8,7,5,79,8,8,7,1,0,2,109,7,8,1,8,1,4,6,19,8,7,0,7,1,1,0,0,0,0,0,0,0,0,0,0,0,0,0,0,0,0,0,0,0,0,0,0,0,0,0,0,0,0,0,0,0,0],"split_type":[0,0,0,0,0,0,0,0,0,0,0,0,0,0,0,0,0,0,0,0,0,0,0,0,0,0,0,0,0,0,0,0,0,0,0,0,0,0,0,0,0,0,0,0,0,0,0,0,0,0,0,0,0,0,0,0,0,0,0,0,0,0,0,0,0],"sum_hessian":[2.3705586E4,3.5312822E3,2.0174303E4,6.268458E3,1.3905845E4,4.400909E3,1.8675487E3,4.418425E3,9.487421E3,2.3932375E3,2.0076718E3,6.3009863E2,1.2374501E3,2.5981902E3,1.8202345E3,8.384179E3,1.1032413E3,1.4212478E3,9.7198975E2,6.7036127E2,1.3373104E3,6.1713275E2,1.2965929E1,1.1050612E3,1.3238896E2,2.2424233E3,3.557669E2,1.0527424E3,7.67492E2,6.057591E3,2.3265881E3,3.9079764E2,7.1244366E2,1.00565564E3,4.1559213E2,9.6334576E2,8.643952E0,3.368867E2,3.334746E2,1.1860413E3,1.5126917E2,3.4439328E2,2.7273944E2,8.643952E0,4.321976E0,9.0170074E2,2.0336037E2,1.1373622E0,1.312516E2,1.9371553E3,3.05268E2,3.4962515E2,6.141756E0,8.5870844E2,1.94034E2,3.6099875E2,4.0649326E2,1.5456752E3,4.511916E3,1.720374E3,6.0621405E2,2.5294936E2,1.378483E2,2.6136584E2,4.5107785E2],"tree_param":{"num_deleted":"0","num_feature":"128","num_nodes":"65","size_leaf_vector":"1"}},{"base_weights":[-7.127634E-2,-6.2449193E-1,8.080545E-2,-5.152513E-1,4.0831012E-1,-7.9464704E-1,-2.2542994E-1,5.2918655E-1,-5.741904E-1,-9.535197E-1,-6.2124646E-1,4.522747E-3,-6.2837934E-1,6.4717835E-1,-5.136852E-1,-8.6407566E-1,-4.0580034E-1,-9.6253043E-1,1.660743E-1,-4.6190768E-1,-9.097965E-1,-5.1769984E-1,1.9333555E-1,-4.511812E-1,-9.344639E-1,8.214952E-1,-2.178633E-2,-1.7874177E-1,-6.847014E-1,-8.946758E-1,6.844937E-1,-2.968289E-1,-8.9502525E-1,-4.414226E-1,-5.416659E-1,4.3641555E-1,-1.1410873E-1,-4.0970978E-1,-1.5839665E-1,-4.6178144E-1,3.4468868E-1,-2.0776169E-1,-5.556954E-1,1.3067643E-1,-4.5671913E-1,-1.7764731E-1,-5.3898805E-1,-4.746559E-1,2.7664006E-1,4.2632076E-1,-3.0084226E-1,-2.682746E-1,1.5161976E-1,-2.582284E-1,-5.3279316E-3,-2.938926E-1,-5.6595826E-1,-4.5717624E-1,-4.3769296E-2,8.1468296E-1,1.1448314E-2,-1.6414548E-1,6.0028297E-1,-4.7290644E-1,2.68139E-1],"categories":[],"categories_nodes":[],"categories_segments":[],"categories_sizes":[],"default_left":[0,0,0,0,1,0,0,0,0,0,0,0,0,0,0,0,0,0,0,0,0,0,1,1,0,0,0,0,0,0,0,0,0,0,0,0,0,0,0,0,0,0,0,0,0,0,0,0,0,0,0,0,0,0,0,0,0,0,0,0,0,0,0,0,0],"id":1,"left_children":[1,-1,3,5,7,9,11,13,15,17,19,21,23,25,27,29,31,33,35,37,39,41,43,45,47,49,51,53,55,57,59,61,63,-1,-1,-1,-1,-1,-1,-1,-1,-1,-1,-1,-1,-1,-1,-1,-1,-1,-1,-1,-1,-1,-1,-1,-1,-1,-1,-1,-1,-1,-1,-1,-1],"loss_changes":[3.8867297E3,0E0,3.7520073E3,5.517256E2,1.4734641E3,9.499878E1,3.1012027E2,1.3595461E3,6.6006744E1,1.8409058E1,7.599219E1,2.103039E2,6.553256E1,1.1572393E3,6.42204E1,2.424002E1,4.5677277E1,1.631897E1,4.461508E0,5.5394394E1,1.3630341E1,3.3895096E1,1.18161644E2,4.6020874E1,1.0353638E1,3.494707E2,3.4354044E2,2.162365E1,3.1549286E1,7.6922913E0,6.35672E0,3.3668285E1,1.1882988E1,0E0,0E0,0E0,0E0,0E0,0E0,0E0,0E0,0E0,0E0,0E0,0E0,0E0,0E0,0E0,0E0,0E0,0E0,0E0,0E0,0E0,0E0,0E0,0E0,0E0,0E0,0E0,0E0,0E0,0E0,0E0,0E0],"parents":[2147483647,0,0,2,2,3,3,4,4,5,5,6,6,7,7,8,8,9,9,10,10,11,11,12,12,13,13,14,14,15,15,16,16,17,17,18,18,19,19,20,20,21,21,22,22,23,23,24,24,25,25,26,26,27,27,28,28,29,29,30,30,31,31,32,32],"right_children":[2,-1,4,6,8,10,12,14,16,18,20,22,24,26,28,30,32,34,36,38,40,42,44,46,48,50,52,54,56,58,60,62,64,-1,-1,-1,-1,-1,-1,-1,-1,-1,-1,-1,-1,-1,-1,-1,-1,-1,-1,-1,-1,-1,-1,-1,-1,-1,-1,-1,-1,-1,-1,-1,-1],"split_conditions":[1E0,-6.2449193E-1,5E0,3E0,1E0,2E0,1E0,4E0,1E0,1E0,1E0,1E0,3.4E1,3.6E1,1.7E1,1E0,4.4E1,4.1E1,7.9E1,1E0,1E0,1E0,1E0,1E0,1E0,1E0,1E0,1E0,5.7E1,1E0,8.25E1,1E0,1E0,-4.414226E-1,-5.416659E-1,4.3641555E-1,-1.1410873E-1,-4.0970978E-1,-1.5839665E-1,-4.6178144E-1,3.4468868E-1,-2.0776169E-1,-5.556954E-1,1.3067643E-1,-4.5671913E-1,-1.7764731E-1,-5.3898805E-1,-4.746559E-1,2.7664006E-1,4.2632076E-1,-3.0084226E-1,-2.682746E-1,1.5161976E-1,-2.582284E-1,-5.3279316E-3,-2.938926E-1,-5.6595826E-1,-4.5717624E-1,-4.3769296E-2,8.1468296E-1,1.1448314E-2,-1.6414548E-1,6.0028297E-1,-4.7290644E-1,2.68139E-1],"split_indices":[3,0,0,0,8,0,1,1,5,112,1,5,7,7,7,79,7,7,4,5,80,6,8,8,80,6,5,5,7,19,2,79,19,0,0,0,0,0,0,0,0,0,0,0,0,0,0,0,0,0,0,0,0,0,0,0,0,0,0,0,0,0,0,0,0],"split_type":[0,0,0,0,0,0,0,0,0,0,0,0,0,0,0,0,0,0,0,0,0,0,0,0,0,0,0,0,0,0,0,0,0,0,0,0,0,0,0,0,0,0,0,0,0,0,0,0,0,0,0,0,0,0,0,0,0,0,0,0,0,0,0,0,0],"sum_hessian":[2.1698934E4,2.480781E3,1.9218154E4,6.8147573E3,1.24033955E4,3.4689004E3,3.3458572E3,1.1044998E4,1.358398E3,1.8079374E3,1.6609629E3,2.1308345E3,1.2150227E3,9.92271E3,1.1222883E3,4.9761566E2,8.6078235E2,1.7936421E3,1.4295285E1,1.0717421E3,5.8922076E2,5.653726E2,1.5654619E3,7.710951E2,4.4392758E2,7.871381E3,2.0513289E3,3.8002878E2,7.422595E2,4.8838727E2,9.228401E0,7.052905E2,1.5549179E2,1.085749E3,7.078931E2,4.6846013E0,9.610683E0,3.0808356E2,7.6365857E2,5.8461066E2,4.6101203E0,4.838074E2,8.156521E1,1.4755454E3,8.991649E1,6.7014386E2,1.0095123E2,4.3989923E2,4.028352E0,7.703197E3,1.6818375E2,7.936798E2,1.257649E3,1.2560101E2,2.5442778E2,6.1195654E2,1.3030301E2,4.7663486E2,1.1752404E1,3.1981406E0,6.0302606E0,6.915412E2,1.3749356E1,1.5049104E2,5.000751E0],"tree_param":{"num_deleted":"0","num_feature":"128","num_nodes":"65","size_leaf_vector":"1"}},{"base_weights":[-6.6929534E-2,-5.6645346E-1,3.179467E-2,-4.4911483E-1,1.8905488E-1,-2.6072672E-1,-6.6462225E-1,-1.7744987E-1,3.4562916E-1,-6.096667E-1,-1.2477107E-1,-5.6206846E-1,-8.931538E-1,-8.682313E-2,-7.761458E-1,5.440623E-1,9.934142E-2,-5.07813E-1,-8.47043E-1,-5.848386E-2,-8.581761E-1,-7.9574966E-1,-4.5387006E-1,-9.0503436E-1,5.406494E-1,1.6810252E-1,-3.1659225E-1,-4.574026E-1,-8.84959E-1,6.111256E-1,-2.1054873E-1,1.5428004E-1,-6.7900425E-1,-4.417292E-2,-2.9658103E-1,-4.3711177E-1,1.5881332E-2,3.8459636E-2,-1.8355936E-1,1.06639594E-1,-4.4350684E-1,-3.4355837E-1,-4.870148E-1,-2.367804E-1,5.7472366E-1,-3.700926E-1,-4.982811E-1,6.5479463E-1,-1.507204E-1,1.2826604E-1,-1.5451665E-1,-1.3106488E-1,-4.752621E-1,-2.5673193E-1,8.318107E-1,-3.277334E-1,-5.0404644E-1,3.2861176E-1,-1.0269695E-2,-3.8641132E-2,-3.3994618E-1,1.1216922E-1,-1.836218E-1,-2.13803E-1,-4.6048012E-1],"categories":[],"categories_nodes":[],"categories_segments":[],"categories_sizes":[],"default_left":[0,0,0,0,0,0,0,0,0,0,1,0,0,0,0,0,0,0,0,0,0,0,0,0,0,0,0,0,0,1,0,1,0,0,0,0,0,0,0,0,0,0,0,0,0,0,0,0,0,0,0,0,0,0,0,0,0,0,0,0,0,0,0,0,0],"id":2,"left_children":[1,-1,3,5,7,9,11,13,15,17,19,21,23,25,27,29,31,33,35,37,39,41,43,45,47,49,51,53,55,57,59,61,63,-1,-1,-1,-1,-1,-1,-1,-1,-1,-1,-1,-1,-1,-1,-1,-1,-1,-1,-1,-1,-1,-1,-1,-1,-1,-1,-1,-1,-1,-1,-1,-1],"loss_changes":[2.0051387E3,0E0,1.3189631E3,1.7430878E2,7.542379E2,1.0878883E2,4.6463257E1,2.1341483E2,4.499933E2,1.5119812E1,8.029252E1,3.467987E1,1.1033905E1,2.0028409E2,1.7532166E1,2.5820325E2,1.7585963E2,1.6149185E1,4.604645E0,6.3411552E1,4.4195786E0,7.7996216E0,3.0524246E1,8.531158E0,4.0940747E0,6.848046E1,6.1837006E1,1.6750656E1,1.0203857E1,1.3639429E2,2.6027586E1,1.403841E2,1.6100601E1,0E0,0E0,0E0,0E0,0E0,0E0,0E0,0E0,0E0,0E0,0E0,0E0,0E0,0E0,0E0,0E0,0E0,0E0,0E0,0E0,0E0,0E0,0E0,0E0,0E0,0E0,0E0,0E0,0E0,0E0,0E0,0E0],"parents":[2147483647,0,0,2,2,3,3,4,4,5,5,6,6,7,7,8,8,9,9,10,10,11,11,12,12,13,13,14,14,15,15,16,16,17,17,18,18,19,19,20,20,21,21,22,22,23,23,24,24,25,25,26,26,27,27,28,28,29,29,30,30,31,31,32,32],"right_children":[2,-1,4,6,8,10,12,14,16,18,20,22,24,26,28,30,32,34,36,38,40,42,44,46,48,50,52,54,56,58,60,62,64,-1,-1,-1,-1,-1,-1,-1,-1,-1,-1,-1,-1,-1,-1,-1,-1,-1,-1,-1,-1,-1,-1,-1,-1,-1,-1,-1,-1,-1,-1,-1,-1],"split_conditions":[1E0,-5.6645346E-1,4E0,3E1,1E0,2E0,8.25E1,5.4E1,1E0,1E0,1E0,1E0,1E0,1E0,7.25E1,5.2E1,6.1E1,6.6E1,1E0,8.25E1,5.75E1,1E0,1E0,4.3E1,1E0,8.75E1,1E0,1E0,6.7E1,1E0,8.25E1,1E0,7.9E1,-4.417292E-2,-2.9658103E-1,-4.3711177E-1,1.5881332E-2,3.8459636E-2,-1.8355936E-1,1.06639594E-1,-4.4350684E-1,-3.4355837E-1,-4.870148E-1,-2.367804E-1,5.7472366E-1,-3.700926E-1,-4.982811E-1,6.5479463E-1,-1.507204E-1,1.2826604E-1,-1.5451665E-1,-1.3106488E-1,-4.752621E-1,-2.5673193E-1,8.318107E-1,-3.277334E-1,-5.0404644E-1,3.2861176E-1,-1.0269695E-2,-3.8641132E-2,-3.3994618E-1,1.1216922E-1,-1.836218E-1,-2.13803E-1,-4.6048012E-1],"split_indices":[3,0,0,7,5,0,2,7,1,1,8,5,72,1,2,7,7,4,15,2,2,8,80,7,1,2,6,16,7,8,2,8,7,0,0,0,0,0,0,0,0,0,0,0,0,0,0,0,0,0,0,0,0,0,0,0,0,0,0,0,0,0,0,0,0],"split_type":[0,0,0,0,0,0,0,0,0,0,0,0,0,0,0,0,0,0,0,0,0,0,0,0,0,0,0,0,0,0,0,0,0,0,0,0,0,0,0,0,0,0,0,0,0,0,0,0,0,0,0,0,0,0,0,0,0,0,0,0,0,0,0,0,0],"sum_hessian":[1.905207E4,1.6140326E3,1.743804E4,4.2966904E3,1.3141348E4,2.2937737E3,2.0029167E3,3.933586E3,9.207762E3,6.421542E2,1.6516195E3,1.3849006E3,6.180161E2,3.4174236E3,5.1616254E2,5.098616E3,4.1091455E3,4.5154422E2,1.9060999E2,1.5157056E3,1.35914E2,4.362837E2,9.4861694E2,6.1330304E2,4.713073E0,1.6201537E3,1.7972698E3,1.3268776E2,3.834748E2,4.682653E3,4.1596338E2,3.8389778E3,2.7016794E2,7.668648E1,3.7485776E2,1.8489653E2,5.713443E0,1.0540343E3,4.6167123E2,3.394541E0,1.3251945E2,2.7411118E2,1.6217252E2,9.378042E2,1.08127775E1,2.2219629E2,3.9110675E2,2.1733508E0,2.539722E0,1.367223E3,2.5293073E2,1.65638E3,1.4088974E2,1.3000937E2,2.6783895E0,1.3611401E2,2.4736076E2,4.364125E3,3.185277E2,3.2488068E2,9.108268E1,3.3848472E3,4.5413052E2,1.3385576E2,1.3631218E2],"tree_param":{"num_deleted":"0","num_feature":"128","num_nodes":"65","size_leaf_vector":"1"}},{"base_weights":[-5.2493215E-2,-5.373854E-1,1.2353326E-2,1.8168281E-1,-2.02247E-1,-2.9928153E-2,3.4421638E-1,-1.437542E-1,-6.4627993E-1,3.395549E-2,-5.696433E-1,4.6738386E-1,-1.1724122E-2,3.288948E-2,-2.819921E-1,-3.858404E-1,-7.563288E-1,7.537801E-2,-5.883015E-1,-4.0252087E-1,-7.362625E-1,5.049727E-1,-1.508087E-1,5.3702302E-2,-6.18099E-1,-4.1044644E-1,1.0504551E-1,-1.82042E-1,-5.721429E-1,-6.315415E-2,-5.442954E-1,-7.722666E-1,5.0623703E-1,9.3208194E-2,-7.459111E-2,-4.4948348E-1,-2.159007E-1,-3.955309E-1,-1.4744121E-1,-3.7785998E-1,5.7612574E-1,2.748545E-1,2.3762828E-2,-1.9856341E-2,-2.533354E-1,6.95083E-2,-1.8695907E-1,-3.283164E-1,4.861949E-1,-1.726189E-1,-4.894272E-1,8.93598E-2,-8.425209E-2,-1.5835556E-1,8.91475E-3,-2.3148638E-1,-4.002089E-1,-1.5893914E-1,1.22972675E-1,-2.8614065E-1,7.3324805E-1,-3.1540525E-1,-4.5202518E-1,-3.2263672E-1,3.9483535E-1],"categories":[],"categories_nodes":[],"categories_segments":[],"categories_sizes":[],"default_left":[0,0,0,0,0,0,0,0,0,1,0,0,0,0,0,0,0,0,0,0,0,1,0,0,0,1,0,0,0,0,0,0,0,0,0,0,0,0,0,0,0,0,0,0,0,0,0,0,0,0,0,0,0,0,0,0,0,0,0,0,0,0,0,0,0],"id":3,"left_children":[1,-1,3,5,7,9,11,13,15,17,19,21,23,25,27,29,31,33,35,37,39,41,43,45,47,49,51,53,55,57,59,61,63,-1,-1,-1,-1,-1,-1,-1,-1,-1,-1,-1,-1,-1,-1,-1,-1,-1,-1,-1,-1,-1,-1,-1,-1,-1,-1,-1,-1,-1,-1,-1,-1],"loss_changes":[1.1314122E3,0E0,5.832662E2,3.0858597E2,1.8377414E2,1.3443224E2,2.2246942E2,1.5278621E2,2.3316833E1,8.991683E1,1.1194351E1,8.767853E1,5.182581E1,8.793716E1,1.0168536E2,1.258057E1,1.2021881E1,8.156497E1,1.0197845E1,8.474998E0,8.41954E0,7.2706055E1,8.553377E0,4.307423E1,8.435562E0,1.39247055E1,4.7669064E1,7.031386E1,2.2028992E1,6.564609E0,1.0143227E1,1.0077667E1,3.0583634E0,0E0,0E0,0E0,0E0,0E0,0E0,0E0,0E0,0E0,0E0,0E0,0E0,0E0,0E0,0E0,0E0,0E0,0E0,0E0,0E0,0E0,0E0,0E0,0E0,0E0,0E0,0E0,0E0,0E0,0E0,0E0,0E0],"parents":[2147483647,0,0,2,2,3,3,4,4,5,5,6,6,7,7,8,8,9,9,10,10,11,11,12,12,13,13,14,14,15,15,16,16,17,17,18,18,19,19,20,20,21,21,22,22,23,23,24,24,25,25,26,26,27,27,28,28,29,29,30,30,31,31,32,32],"right_children":[2,-1,4,6,8,10,12,14,16,18,20,22,24,26,28,30,32,34,36,38,40,42,44,46,48,50,52,54,56,58,60,62,64,-1,-1,-1,-1,-1,-1,-1,-1,-1,-1,-1,-1,-1,-1,-1,-1,-1,-1,-1,-1,-1,-1,-1,-1,-1,-1,-1,-1,-1,-1,-1,-1],"split_conditions":[1E0,-5.373854E-1,2.5E1,7E0,7.8E1,3E0,3E0,8.9E1,6.5E1,1E0,8.75E1,1.94E2,5E0,3E0,8.75E1,6.75E1,1E0,1.3E2,3E0,3E0,1E0,1E0,8.75E1,1.56E2,1E0,1E0,3E0,7E0,1.46E2,4E0,1E0,7.75E1,2E0,9.3208194E-2,-7.459111E-2,-4.4948348E-1,-2.159007E-1,-3.955309E-1,-1.4744121E-1,-3.7785998E-1,5.7612574E-1,2.748545E-1,2.3762828E-2,-1.9856341E-2,-2.533354E-1,6.95083E-2,-1.8695907E-1,-3.283164E-1,4.861949E-1,-1.726189E-1,-4.894272E-1,8.93598E-2,-8.425209E-2,-1.5835556E-1,8.91475E-3,-2.3148638E-1,-4.002089E-1,-1.5893914E-1,1.22972675E-1,-2.8614065E-1,7.3324805E-1,-3.1540525E-1,-4.5202518E-1,-3.2263672E-1,3.9483535E-1],"split_indices":[3,0,7,0,7,1,1,4,4,8,2,4,1,0,2,2,80,4,0,0,16,8,2,4,79,8,1,0,4,0,38,2,0,0,0,0,0,0,0,0,0,0,0,0,0,0,0,0,0,0,0,0,0,0,0,0,0,0,0,0,0,0,0,0,0],"split_type":[0,0,0,0,0,0,0,0,0,0,0,0,0,0,0,0,0,0,0,0,0,0,0,0,0,0,0,0,0,0,0,0,0,0,0,0,0,0,0,0,0,0,0,0,0,0,0,0,0,0,0,0,0,0,0,0,0,0,0,0,0,0,0,0,0],"sum_hessian":[1.7066111E4,1.01705804E3,1.6049054E4,8.970819E3,7.0782344E3,3.8974023E3,5.073417E3,6.2555146E3,8.227198E2,3.4857473E3,4.1165506E2,3.7689272E3,1.3044897E3,2.7466025E3,3.508912E3,2.4571693E2,5.7700287E2,3.269014E3,2.1673347E2,2.072225E2,2.0443256E2,3.5530679E3,2.1585919E2,1.1782688E3,1.26221E2,3.8379968E2,2.3628027E3,2.611083E3,8.9782904E2,8.1382935E1,1.64334E2,5.701934E2,6.809407E0,2.18752E3,1.0814939E3,7.101623E1,1.4571725E2,4.3576344E1,1.6364616E2,2.0294148E2,1.4910866E0,3.2363643E3,3.1670377E2,1.6535033E2,5.0508865E1,9.828549E2,1.9541388E2,1.2380856E2,2.4124372E0,3.4574292E2,3.805678E1,1.8617355E3,5.010673E2,1.5596438E3,1.0514392E3,6.0941205E2,2.88417E2,4.46002E1,3.6782734E1,1.6278378E2,1.5502071E0,2.7779553E2,2.9239792E2,1.0928477E0,5.71656E0],"tree_param":{"num_deleted":"0","num_feature":"128","num_nodes":"65","size_leaf_vector":"1"}},{"base_weights":[-3.7376773E-2,-5.213254E-1,4.273373E-3,-1.9601569E-1,8.945669E-2,-1.417584E-1,-7.2026753E-1,-8.268893E-2,1.769045E-1,-2.2350604E-2,-3.7307578E-1,-7.609507E-1,1.9048511E0,-4.677736E-2,-6.6330373E-1,2.2485928E-1,-1.743992E-1,-4.340696E-1,3.686208E-2,-4.0199563E-1,6.939079E-1,-7.974855E-1,8.5625835E-2,1.4682443E0,2.7896373E-2,-3.5046768E-1,1.776869E-2,-6.1688386E-2,-7.122145E-1,3.6341807E-1,1.20561816E-1,-1.18613176E-1,-5.2084315E-1,8.9357264E-2,-2.4461909E-1,5.2800006E-3,4.4636568E-1,-2.1401367E-1,3.1982294E-1,3.7569705E-1,-1.9374065E-1,-4.094886E-1,2.7586472E-1,-2.0215969E-1,4.016089E-1,3.2588527E-1,-3.1157148E-1,-1.8635143E-1,7.387519E-1,8.888933E-4,7.2672045E-1,-2.3646054E-1,1.9506751E-1,-2.709141E-1,-4.4028792E-1,1.8935147E-1,-2.5025234E-1,5.347316E-2,6.4384156E-1,-4.8689198E-2,-5.5483323E-1,-2.7394587E-1,4.8450527E-1],"categories":[],"categories_nodes":[],"categories_segments":[],"categories_sizes":[],"default_left":[0,0,0,0,0,0,0,1,0,0,0,0,0,0,0,0,0,0,0,0,0,0,0,0,0,0,0,0,0,0,0,0,0,0,0,0,0,0,0,0,0,0,0,0,0,0,0,0,0,0,0,0,0,0,0,0,0,0,0,0,0,0,0],"id":4,"left_children":[1,-1,3,5,7,9,11,13,15,17,19,21,23,25,27,29,31,33,35,37,39,41,43,-1,45,47,49,51,53,55,57,59,61,-1,-1,-1,-1,-1,-1,-1,-1,-1,-1,-1,-1,-1,-1,-1,-1,-1,-1,-1,-1,-1,-1,-1,-1,-1,-1,-1,-1,-1,-1],"loss_changes":[6.6478546E2,0E0,2.6014545E2,1.2931557E2,1.6105737E2,1.1391097E2,4.6996292E1,7.512365E1,1.1955704E2,6.6357185E1,4.360573E1,1.3079727E1,1.3073462E1,6.656545E1,6.131714E0,9.0172424E1,1.641761E1,1.165715E1,5.356731E1,3.735977E1,2.617365E0,1.2148468E1,6.7610946E0,0E0,1.7949564E0,2.474401E1,6.4308784E1,3.3198712E0,5.088051E0,3.5585846E1,5.648538E1,1.53748E1,5.284672E0,0E0,0E0,0E0,0E0,0E0,0E0,0E0,0E0,0E0,0E0,0E0,0E0,0E0,0E0,0E0,0E0,0E0,0E0,0E0,0E0,0E0,0E0,0E0,0E0,0E0,0E0,0E0,0E0,0E0,0E0],"parents":[2147483647,0,0,2,2,3,3,4,4,5,5,6,6,7,7,8,8,9,9,10,10,11,11,12,12,13,13,14,14,15,15,16,16,17,17,18,18,19,19,20,20,21,21,22,22,24,24,25,25,26,26,27,27,28,28,29,29,30,30,31,31,32,32],"right_children":[2,-1,4,6,8,10,12,14,16,18,20,22,24,26,28,30,32,34,36,38,40,42,44,-1,46,48,50,52,54,56,58,60,62,-1,-1,-1,-1,-1,-1,-1,-1,-1,-1,-1,-1,-1,-1,-1,-1,-1,-1,-1,-1,-1,-1,-1,-1,-1,-1,-1,-1,-1,-1],"split_conditions":[1E0,-5.213254E-1,1E0,1E0,5E0,1E0,1E0,1E0,9.25E1,3E0,1E0,1E0,2.00001E0,2E0,6.25E1,1.8E1,1.48E2,5.25E1,1E0,1E0,4.6E1,1E0,8.25E1,1.4682443E0,3.1E1,1E0,1E0,9.1E1,3E1,1E0,1E0,3.1E1,1E0,8.9357264E-2,-2.4461909E-1,5.2800006E-3,4.4636568E-1,-2.1401367E-1,3.1982294E-1,3.7569705E-1,-1.9374065E-1,-4.094886E-1,2.7586472E-1,-2.0215969E-1,4.016089E-1,3.2588527E-1,-3.1157148E-1,-1.8635143E-1,7.387519E-1,8.888933E-4,7.2672045E-1,-2.3646054E-1,1.9506751E-1,-2.709141E-1,-4.4028792E-1,1.8935147E-1,-2.5025234E-1,5.347316E-2,6.4384156E-1,-4.8689198E-2,-5.5483323E-1,-2.7394587E-1,4.8450527E-1],"split_indices":[3,0,5,6,0,8,124,8,2,0,79,107,8,0,2,7,4,2,56,16,7,29,2,0,7,21,80,4,7,34,36,0,27,0,0,0,0,0,0,0,0,0,0,0,0,0,0,0,0,0,0,0,0,0,0,0,0,0,0,0,0,0,0],"split_type":[0,0,0,0,0,0,0,0,0,0,0,0,0,0,0,0,0,0,0,0,0,0,0,0,0,0,0,0,0,0,0,0,0,0,0,0,0,0,0,0,0,0,0,0,0,0,0,0,0,0,0,0,0,0,0,0,0,0,0,0,0,0,0],"sum_hessian":[1.5876334E4,6.3065753E2,1.5245677E4,4.5488345E3,1.0696843E4,4.123359E3,4.2547534E2,3.6034048E3,7.0934375E3,2.7202446E3,1.4031145E3,4.196814E2,5.7939496E0,3.3945305E3,2.088743E2,6.241764E3,8.5167334E2,3.4123447E2,2.3790103E3,1.3666945E3,3.6420055E1,4.0237454E2,1.7306856E1,3.3746386E0,2.4193113E0,5.942314E2,2.800299E3,1.587455E1,1.9299976E2,2.6795322E3,3.5622322E3,7.347094E2,1.1696395E2,2.7998802E1,3.132357E2,2.3090618E3,6.99484E1,1.3339468E3,3.274763E1,3.4871464E1,1.5485928E0,3.9645242E2,5.9221144E0,1.0544217E1,6.762639E0,1.2348568E0,1.1844544E0,5.8787665E2,6.3547344E0,2.7704424E3,2.9856695E1,8.28613E0,7.5884194E0,9.801953E1,9.498022E1,2.6335007E3,4.603131E1,3.522234E3,3.9998318E1,7.203726E2,1.4336792E1,1.1549929E2,1.4646599E0],"tree_param":{"num_deleted":"0","num_feature":"128","num_nodes":"63","size_leaf_vector":"1"}},{"base_weights":[-2.7096482E-2,-5.118322E-1,-6.2917295E-4,4.0185165E-2,-2.6153135E-1,2.6327392E-2,7.8075933E-1,-2.1617694E-1,-6.913E-1,1.08405255E-1,-9.676748E-2,9.194603E-1,4.7972E-1,-1.4800997E-1,-4.7855303E-1,-7.1186787E-1,5.3014E-1,9.56973E-2,8.901456E-1,1.302617E-3,-2.6104844E-1,1.0630698E0,6.893629E-1,5.753978E-1,-2.4395294E-1,-2.7759027E-1,3.1928066E-2,-5.030132E-1,1.2159959E0,-7.462289E-1,3.9155656E-3,-3.1845585E-1,7.4361044E-1,5.593118E-3,1.0699693E-1,6.8727356E-1,3.6858615E-1,1.8018981E-2,-2.1663226E-1,-1.923957E-1,-7.728038E-2,4.8418134E-1,7.0233E-1,7.539478E-1,2.9274887E-1,3.2300088E-1,-1.15123436E-1,1.633804E-1,-4.110245E-1,-1.4727034E-1,5.3191304E-1,5.8426708E-2,-1.9161263E-1,-2.0341827E-1,-3.5620323E-1,1.8574886E-1,8.038541E-1,-3.801188E-1,2.800071E-1,-3.8636205E-1,3.5110977E-1],"categories":[],"categories_nodes":[],"categories_segments":[],"categories_sizes":[],"default_left":[0,0,0,0,1,0,0,0,0,0,0,0,1,0,0,0,0,0,0,0,0,0,0,0,0,0,0,0,0,0,0,0,0,0,0,0,0,0,0,0,0,0,0,0,0,0,0,0,0,0,0,0,0,0,0,0,0,0,0,0,0],"id":5,"left_children":[1,-1,3,5,7,9,11,13,15,17,19,21,23,25,27,29,31,33,35,37,39,41,43,45,47,49,51,53,55,57,59,-1,-1,-1,-1,-1,-1,-1,-1,-1,-1,-1,-1,-1,-1,-1,-1,-1,-1,-1,-1,-1,-1,-1,-1,-1,-1,-1,-1,-1,-1],"loss_changes":[3.9628018E2,0E0,1.5586626E2,1.2987753E2,3.8445404E1,1.2555318E2,9.265167E0,3.1988525E1,5.1143875E0,7.397955E1,8.009467E1,4.4897156E0,5.361891E0,3.321791E1,1.59151E1,4.574188E0,5.0751815E0,7.335132E1,7.8147964E0,4.7021225E1,2.4428497E1,1.7282715E0,4.522503E0,3.954361E0,3.4056904E0,1.9142399E1,2.1099314E1,7.054085E0,1.2374296E0,3.6710663E0,5.699267E0,0E0,0E0,0E0,0E0,0E0,0E0,0E0,0E0,0E0,0E0,0E0,0E0,0E0,0E0,0E0,0E0,0E0,0E0,0E0,0E0,0E0,0E0,0E0,0E0,0E0,0E0,0E0,0E0,0E0,0E0],"parents":[2147483647,0,0,2,2,3,3,4,4,5,5,6,6,7,7,8,8,9,9,10,10,11,11,12,12,13,13,14,14,15,15,16,16,17,17,18,18,19,19,20,20,21,21,22,22,23,23,24,24,25,25,26,26,27,27,28,28,29,29,30,30],"right_children":[2,-1,4,6,8,10,12,14,16,18,20,22,24,26,28,30,32,34,36,38,40,42,44,46,48,50,52,54,56,58,60,-1,-1,-1,-1,-1,-1,-1,-1,-1,-1,-1,-1,-1,-1,-1,-1,-1,-1,-1,-1,-1,-1,-1,-1,-1,-1,-1,-1,-1,-1],"split_conditions":[1E0,-5.118322E-1,4.9E1,1E0,1E0,8.25E1,1.15E2,8.75E1,1E0,1E0,1.16E2,1E0,1E0,6E0,1E0,1E0,7E0,8E0,4E0,2.6E1,8E0,2.3E1,5.75E1,3.1E1,1E0,1E0,9.1E1,7.7E1,1E1,1E0,8E0,-3.1845585E-1,7.4361044E-1,5.593118E-3,1.0699693E-1,6.8727356E-1,3.6858615E-1,1.8018981E-2,-2.1663226E-1,-1.923957E-1,-7.728038E-2,4.8418134E-1,7.0233E-1,7.539478E-1,2.9274887E-1,3.2300088E-1,-1.15123436E-1,1.633804E-1,-4.110245E-1,-1.4727034E-1,5.3191304E-1,5.8426708E-2,-1.9161263E-1,-2.0341827E-1,-3.5620323E-1,1.8574886E-1,8.038541E-1,-3.801188E-1,2.800071E-1,-3.8636205E-1,3.5110977E-1],"split_indices":[3,0,7,79,8,2,4,2,40,56,4,8,8,0,45,19,0,0,0,0,0,7,2,7,1,123,7,7,0,63,0,0,0,0,0,0,0,0,0,0,0,0,0,0,0,0,0,0,0,0,0,0,0,0,0,0,0,0,0,0,0],"split_type":[0,0,0,0,0,0,0,0,0,0,0,0,0,0,0,0,0,0,0,0,0,0,0,0,0,0,0,0,0,0,0,0,0,0,0,0,0,0,0,0,0,0,0,0,0,0,0,0,0,0,0,0,0,0,0,0,0,0,0,0,0],"sum_hessian":[1.5023027E4,3.8769138E2,1.4635336E4,1.265629E4,1.9790459E3,1.2424829E4,2.3146037E2,1.7914893E3,1.8755669E2,7.454438E3,4.9703916E3,1.5704784E2,7.441253E1,1.423277E3,3.6821225E2,1.84861E2,2.6956947E0,7.336302E3,1.18136406E2,3.1130183E3,1.8573732E3,9.446796E1,6.2579887E1,6.5904144E1,8.508387E0,8.2710455E2,5.961724E2,3.6366605E2,4.5462136E0,1.7635268E2,8.5083065E0,1.3653419E0,1.3303528E0,4.279863E3,3.0564392E3,2.6436789E1,9.1699615E1,2.883458E3,2.2956033E2,8.578747E2,9.994984E2,7.696421E1,1.750374E1,5.5245566E0,5.7055332E1,6.0776093E1,5.1280518E0,4.50031E0,4.0080767E0,8.175542E2,9.550345E0,4.9552457E2,1.0064787E2,2.5122061E2,1.1244544E2,2.0579164E0,2.4882972E0,1.7489503E2,1.4576522E0,3.9777548E0,4.530552E0],"tree_param":{"num_deleted":"0","num_feature":"128","num_nodes":"61","size_leaf_vector":"1"}},{"base_weights":[-1.8194014E-2,-5.0575155E-1,-1.6798778E-3,2.7190791E-2,-3.0617702E-1,3.5665236E-2,-9.6673185E-1,-4.6027857E-1,-1.3596407E-1,2.5896085E-2,8.0730027E-1,-1.2593683E0,-5.5949587E-1,-4.793102E-1,7.932074E-1,2.7270147E-1,-2.4459125E-1,1.7423814E-2,7.9481E-1,-6.3665435E-2,8.7477183E-1,-1.2848612E0,-1.468682E-1,-3.7099174E-1,-1.2350004E0,-3.6780658E-1,-7.083029E-1,1.2916268E0,1.3763322E-1,4.6562374E-1,-6.506072E-2,-1.8696475E-1,-5.847752E-1,5.482248E-2,-2.8103929E-2,-1.4467536E-1,4.574147E-1,1.6963413E-1,-2.0114703E-1,4.7007242E-1,3.1768687E-2,-4.238078E-1,-6.859532E-1,-2.8560853E-1,3.5374084E-1,-8.8372596E-2,-7.731933E-1,-3.684152E-1,-1.3892698E-1,7.0056696E-3,-3.7419677E-1,9.6738064E-1,2.09642E-1,2.7524325E-1,-2.0769085E-1,6.4185214E-1,2.0276833E-1,3.8278943E-1,-1.1021809E-1,-6.8699315E-2,-2.6636472E-1,3.4805712E-1,-3.0926633E-1],"categories":[],"categories_nodes":[],"categories_segments":[],"categories_sizes":[],"default_left":[0,0,1,0,0,0,0,0,0,0,0,0,0,0,0,0,0,0,0,0,0,0,0,0,0,0,0,0,0,0,0,0,0,0,0,0,0,0,0,0,0,0,0,0,0,0,0,0,0,0,0,0,0,0,0,0,0,0,0,0,0,0,0],"id":6,"left_children":[1,-1,3,5,7,9,11,13,15,17,19,21,23,25,27,29,31,33,35,37,39,41,-1,43,45,47,49,51,53,55,57,59,61,-1,-1,-1,-1,-1,-1,-1,-1,-1,-1,-1,-1,-1,-1,-1,-1,-1,-1,-1,-1,-1,-1,-1,-1,-1,-1,-1,-1,-1,-1],"loss_changes":[2.3895787E2,0E0,1.25986E2,1.102918E2,3.2492218E1,9.782834E1,1.2487968E1,1.59096985E1,2.6309269E1,8.349593E1,9.590294E0,1.1885757E0,5.664998E0,1.6128387E1,3.1265054E0,8.150118E0,9.056196E0,8.6111664E1,1.8440704E1,1.8553466E0,7.9297256E0,1.1847839E0,0E0,8.831102E0,3.0423546E0,1.4193356E1,6.065956E0,2.3449202E0,1.4814094E0,3.3840008E0,6.128475E0,6.8041124E0,3.33877E0,0E0,0E0,0E0,0E0,0E0,0E0,0E0,0E0,0E0,0E0,0E0,0E0,0E0,0E0,0E0,0E0,0E0,0E0,0E0,0E0,0E0,0E0,0E0,0E0,0E0,0E0,0E0,0E0,0E0,0E0],"parents":[2147483647,0,0,2,2,3,3,4,4,5,5,6,6,7,7,8,8,9,9,10,10,11,11,12,12,13,13,14,14,15,15,16,16,17,17,18,18,19,19,20,20,21,21,23,23,24,24,25,25,26,26,27,27,28,28,29,29,30,30,31,31,32,32],"right_children":[2,-1,4,6,8,10,12,14,16,18,20,22,24,26,28,30,32,34,36,38,40,42,-1,44,46,48,50,52,54,56,58,60,62,-1,-1,-1,-1,-1,-1,-1,-1,-1,-1,-1,-1,-1,-1,-1,-1,-1,-1,-1,-1,-1,-1,-1,-1,-1,-1,-1,-1,-1,-1],"split_conditions":[1E0,-5.0575155E-1,1E0,1E0,1.1E1,1E0,8E0,1E0,6.2E1,1E0,2E0,7.1E1,2E1,2E0,3.7E1,2.8E1,4E0,2E1,2E0,9.1E1,4E0,1.3E1,-1.468682E-1,1.8E1,1E0,3E0,4.7E1,6E0,1.04E2,3E0,3.6E1,1.63E2,6.3E1,5.482248E-2,-2.8103929E-2,-1.4467536E-1,4.574147E-1,1.6963413E-1,-2.0114703E-1,4.7007242E-1,3.1768687E-2,-4.238078E-1,-6.859532E-1,-2.8560853E-1,3.5374084E-1,-8.8372596E-2,-7.731933E-1,-3.684152E-1,-1.3892698E-1,7.0056696E-3,-3.7419677E-1,9.6738064E-1,2.09642E-1,2.7524325E-1,-2.0769085E-1,6.4185214E-1,2.0276833E-1,3.8278943E-1,-1.1021809E-1,-6.8699315E-2,-2.6636472E-1,3.4805712E-1,-3.0926633E-1],"split_indices":[3,0,8,12,0,16,0,21,4,123,0,7,0,1,7,7,1,7,0,4,1,7,0,0,5,0,4,0,4,7,4,4,4,0,0,0,0,0,0,0,0,0,0,0,0,0,0,0,0,0,0,0,0,0,0,0,0,0,0,0,0,0,0],"split_type":[0,0,0,0,0,0,0,0,0,0,0,0,0,0,0,0,0,0,0,0,0,0,0,0,0,0,0,0,0,0,0,0,0,0,0,0,0,0,0,0,0,0,0,0,0,0,0,0,0,0,0,0,0,0,0,0,0,0,0,0,0,0,0],"sum_hessian":[1.4566471E4,2.3722736E2,1.4329243E4,1.3089118E4,1.2401244E3,1.2979417E4,1.0970181E2,6.499714E2,5.9015295E2,1.2818168E4,1.6124866E2,6.261483E1,4.7086983E1,6.408589E2,9.112521E0,1.23610054E2,4.665429E2,1.2679482E4,1.386861E2,1.1597474E1,1.4965118E2,6.0682217E1,1.9326142E0,3.8025043E1,9.061938E0,4.327471E2,2.0811177E2,4.6255727E0,4.486949E0,7.8432556E1,4.5177494E1,4.00285E2,6.62579E1,5.6289395E3,7.0505425E3,1.3682079E1,1.2500401E2,5.295033E0,6.3024406E0,1.3834389E2,1.1307298E1,1.1857466E1,4.882475E1,3.2467583E1,5.557462E0,2.416613E0,6.645325E0,8.340265E1,3.4934445E2,1.0977644E1,1.9713412E2,1.9615382E0,2.6640344E0,2.5716534E0,1.9152957E0,3.9732351E0,7.445932E1,6.5001755E0,3.867732E1,3.5131992E2,4.8965096E1,1.1975386E0,6.5060356E1],"tree_param":{"num_deleted":"0","num_feature":"128","num_nodes":"63","size_leaf_vector":"1"}},{"base_weights":[-1.273009E-2,-5.012931E-1,-2.5083607E-3,2.1347892E-2,-2.8588095E-1,-3.0712155E-1,4.1346394E-2,-3.009367E-1,1.0659142E0,-3.285725E-1,1.8951325E0,7.004163E-2,-1.677974E-1,-3.1675097E-1,8.9319736E-1,-2.8671157E-1,1.267425E0,-5.7903E-1,-2.1752773E-1,-1.2367489E-2,2.55325E0,8.215423E-2,-5.008111E-1,-9.0174854E-2,-3.6468956E-1,-2.973684E-1,-1.271568E0,9.9724674E-1,-9.1300786E-2,5.816694E-2,1.378315E0,-6.917946E-2,-3.1689018E-1,-1.1860789E-1,8.268723E-1,1.4668188E0,2.2329624E-1,4.4907216E-2,-3.6713263E-1,-2.598257E-1,8.4043163E-1,1.1047647E-2,-1.2564228E-1,-1.4201453E-1,-3.050237E-1,-3.408666E-1,-1.2879765E-1,-6.630232E-1,-2.514428E-1,5.8367556E-1,-1.4144892E-1,8.344053E-1,3.4827814E-1],"categories":[],"categories_nodes":[],"categories_segments":[],"categories_sizes":[],"default_left":[0,0,0,0,0,0,0,0,0,0,0,0,0,0,0,0,0,0,0,0,0,0,0,0,0,0,0,1,0,0,0,0,0,0,0,0,0,0,0,0,0,0,0,0,0,0,0,0,0,0,0,0,0],"id":7,"left_children":[1,-1,3,5,7,9,11,13,15,17,19,21,23,25,27,-1,29,31,33,-1,35,37,39,41,43,45,47,49,-1,-1,51,-1,-1,-1,-1,-1,-1,-1,-1,-1,-1,-1,-1,-1,-1,-1,-1,-1,-1,-1,-1,-1,-1],"loss_changes":[1.4437167E2,0E0,9.5488266E1,8.559451E1,2.2643288E1,3.59497E1,7.371847E1,2.0781975E1,4.7904654E0,2.0495262E1,9.364431E0,7.47211E1,2.261781E1,1.9462204E1,1.7995272E0,0E0,1.2777367E0,5.3928375E0,1.9376701E1,0E0,3.0907288E0,6.621339E1,1.010318E1,1.9256695E1,8.113934E0,1.5907188E1,2.1357727E-1,3.2329655E0,0E0,0E0,8.5453033E-1,0E0,0E0,0E0,0E0,0E0,0E0,0E0,0E0,0E0,0E0,0E0,0E0,0E0,0E0,0E0,0E0,0E0,0E0,0E0,0E0,0E0,0E0],"parents":[2147483647,0,0,2,2,3,3,4,4,5,5,6,6,7,7,8,8,9,9,10,10,11,11,12,12,13,13,14,14,16,16,17,17,18,18,20,20,21,21,22,22,23,23,24,24,25,25,26,26,27,27,30,30],"right_children":[2,-1,4,6,8,10,12,14,16,18,20,22,24,26,28,-1,30,32,34,-1,36,38,40,42,44,46,48,50,-1,-1,52,-1,-1,-1,-1,-1,-1,-1,-1,-1,-1,-1,-1,-1,-1,-1,-1,-1,-1,-1,-1,-1,-1],"split_conditions":[1E0,-5.012931E-1,4E0,2E0,1E0,1E0,1.66E2,1E0,4E0,1E0,8.6E1,1E0,2.02E2,1E0,4.1E1,-2.8671157E-1,5.3E1,5.25E1,1E0,-1.2367489E-2,8.25E1,1E0,1E0,2.4E1,2E1,5E0,4.8E1,1E0,-9.1300786E-2,5.816694E-2,1.2E2,-6.917946E-2,-3.1689018E-1,-1.1860789E-1,8.268723E-1,1.4668188E0,2.2329624E-1,4.4907216E-2,-3.6713263E-1,-2.598257E-1,8.4043163E-1,1.1047647E-2,-1.2564228E-1,-1.4201453E-1,-3.050237E-1,-3.408666E-1,-1.2879765E-1,-6.630232E-1,-2.514428E-1,5.8367556E-1,-1.4144892E-1,8.344053E-1,3.4827814E-1],"split_indices":[3,0,1,0,91,109,4,42,0,5,4,6,4,14,7,0,4,2,105,0,2,34,85,7,7,0,7,8,0,0,4,0,0,0,0,0,0,0,0,0,0,0,0,0,0,0,0,0,0,0,0,0,0],"split_type":[0,0,0,0,0,0,0,0,0,0,0,0,0,0,0,0,0,0,0,0,0,0,0,0,0,0,0,0,0,0,0,0,0,0,0,0,0,0,0,0,0,0,0,0,0,0,0,0,0,0,0,0,0],"sum_hessian":[1.4267985E4,1.4483983E2,1.41231455E4,1.3027339E4,1.0958063E3,7.468123E2,1.2280526E4,1.0845049E3,1.1301397E1,7.404508E2,6.361528E0,1.0799469E4,1.4810582E3,1.0710553E3,1.3449551E1,1.0350884E0,1.0266309E1,2.2615408E2,5.1429675E2,1.869683E0,4.491845E0,1.057592E4,2.2354839E2,1.0633157E3,4.1774252E2,1.051031E3,2.002426E1,1.23300295E1,1.1195214E0,1.082152E0,9.184157E0,2.5382704E1,2.0077138E2,5.0980618E2,4.4905434E0,3.472313E0,1.0195322E0,1.0478494E4,9.742641E1,2.223897E2,1.1586847E0,6.271475E2,4.3616818E2,3.1601227E2,1.0173025E2,9.704582E1,9.5398517E2,1.8021912E1,2.0023491E0,1.09615755E1,1.368454E0,5.4248433E0,3.759314E0],"tree_param":{"num_deleted":"0","num_feature":"128","num_nodes":"53","size_leaf_vector":"1"}},{"base_weights":[-9.728898E-3,-4.9725422E-1,-3.3901746E-3,-1.0357381E-2,7.3715866E-1,1.29555985E-2,-2.071373E-1,9.430103E-1,5.072784E-1,2.690651E-2,-3.7009248E-1,-6.0316706E-1,-1.3322337E-1,6.517672E-1,1.2608516E0,3.2672867E-1,9.0978503E-1,-3.2987777E-2,1.4407092E-1,-2.8756478E-1,-8.46983E-1,-6.2408876E-1,7.7589613E-1,-1.4790642E-1,9.19507E-1,8.222832E-1,1.5181666E-2,7.423781E-1,1.6530858E0,4.973786E-1,-2.3102123E-1,1.2797747E0,4.3694603E-1,-2.1445582E-2,3.9561045E-1,1.24438055E-1,2.9570518E-2,-4.7047574E-2,-2.002938E-1,-4.534958E-1,6.4499444E-1,-3.235639E-1,6.3394445E-1,-1.6884556E-1,-2.4662854E-2,6.0803336E-1,2.1669533E-2,4.6758166E-1,-5.6415014E-2,1.6700876E-1,-5.251919E-1,5.215013E-1,5.9997156E-2,1.3860077E0,6.0752934E-1,-9.064768E-2,3.5137978E-1,2.474527E-1,-3.5425106E-1,3.7719506E-1,8.781001E-1,-4.178294E-1,4.0619057E-1],"categories":[],"categories_nodes":[],"categories_segments":[],"categories_sizes":[],"default_left":[0,0,0,0,0,0,0,0,0,0,0,0,0,0,0,0,0,0,0,0,0,0,0,0,0,1,0,0,0,0,0,0,0,0,0,0,0,0,0,0,0,0,0,0,0,0,0,0,0,0,0,0,0,0,0,0,0,0,0,0,0,0,0],"id":8,"left_children":[1,-1,3,5,7,9,11,13,15,17,19,21,23,25,27,29,31,33,35,37,39,41,-1,43,45,47,49,51,53,55,57,59,61,-1,-1,-1,-1,-1,-1,-1,-1,-1,-1,-1,-1,-1,-1,-1,-1,-1,-1,-1,-1,-1,-1,-1,-1,-1,-1,-1,-1,-1,-1],"loss_changes":[8.724903E1,0E0,7.167043E1,6.313101E1,5.6482697E0,6.5762054E1,4.2588314E1,5.393326E0,4.3050117E0,8.33216E1,1.6776196E1,1.1292137E1,1.9143463E1,4.015312E0,5.083954E0,4.4245415E0,2.7735405E0,6.416905E1,3.5735886E1,8.056545E0,9.28516E0,1.0736702E1,0E0,2.2689129E1,4.3784513E0,3.1928005E0,3.3603392E0,2.7153158E0,4.891739E0,5.0042734E0,4.2642083E0,1.220499E0,5.3998966E0,0E0,0E0,0E0,0E0,0E0,0E0,0E0,0E0,0E0,0E0,0E0,0E0,0E0,0E0,0E0,0E0,0E0,0E0,0E0,0E0,0E0,0E0,0E0,0E0,0E0,0E0,0E0,0E0,0E0,0E0],"parents":[2147483647,0,0,2,2,3,3,4,4,5,5,6,6,7,7,8,8,9,9,10,10,11,11,12,12,13,13,14,14,15,15,16,16,17,17,18,18,19,19,20,20,21,21,23,23,24,24,25,25,26,26,27,27,28,28,29,29,30,30,31,31,32,32],"right_children":[2,-1,4,6,8,10,12,14,16,18,20,22,24,26,28,30,32,34,36,38,40,42,-1,44,46,48,50,52,54,56,58,60,62,-1,-1,-1,-1,-1,-1,-1,-1,-1,-1,-1,-1,-1,-1,-1,-1,-1,-1,-1,-1,-1,-1,-1,-1,-1,-1,-1,-1,-1,-1],"split_conditions":[1E0,-4.9725422E-1,1E0,9.25E1,1E0,2.6E1,5E0,2.9E1,8.75E1,1E1,3.3E1,1E0,1E0,1.53E2,7E0,4.5E1,9.4E1,1E0,8.4E1,7.6E1,1E0,1E0,7.7589613E-1,1E0,2.00001E0,1E0,2E1,8.25E1,9E0,1.6E1,7.3E1,3E0,1.03E2,-2.1445582E-2,3.9561045E-1,1.24438055E-1,2.9570518E-2,-4.7047574E-2,-2.002938E-1,-4.534958E-1,6.4499444E-1,-3.235639E-1,6.3394445E-1,-1.6884556E-1,-2.4662854E-2,6.0803336E-1,2.1669533E-2,4.6758166E-1,-5.6415014E-2,1.6700876E-1,-5.251919E-1,5.215013E-1,5.9997156E-2,1.3860077E0,6.0752934E-1,-9.064768E-2,3.5137978E-1,2.474527E-1,-3.5425106E-1,3.7719506E-1,8.781001E-1,-4.178294E-1,4.0619057E-1],"split_indices":[3,0,45,2,5,0,0,7,2,0,0,88,126,4,0,7,4,72,4,4,124,29,0,5,8,8,0,2,0,7,4,1,4,0,0,0,0,0,0,0,0,0,0,0,0,0,0,0,0,0,0,0,0,0,0,0,0,0,0,0,0,0,0],"split_type":[0,0,0,0,0,0,0,0,0,0,0,0,0,0,0,0,0,0,0,0,0,0,0,0,0,0,0,0,0,0,0,0,0,0,0,0,0,0,0,0,0,0,0,0,0,0,0,0,0,0,0,0,0,0,0,0,0,0,0,0,0,0,0],"sum_hessian":[1.3976727E4,8.83915E1,1.3888335E4,1.3759865E4,1.2846909E2,1.230321E4,1.456656E3,6.614016E1,6.2328922E1,1.1871761E4,4.3144913E2,2.2798033E2,1.2286757E3,3.610614E1,3.0034018E1,4.4278812E1,1.8050112E1,7.8563325E3,4.0154282E3,3.691665E2,6.2282623E1,2.2649179E2,1.4885316E0,1.212622E3,1.6053652E1,2.824793E1,7.85821E0,1.4181257E1,1.5852761E1,3.398803E1,1.0290782E1,9.168958E0,8.881153E0,7.763991E3,9.234126E1,1.796536E3,2.218892E3,1.3681038E2,2.3235612E2,6.114128E1,1.1413442E0,2.2441698E2,2.0748134E0,4.1371823E2,7.9890375E2,1.1704164E1,4.3494887E0,2.5205278E1,3.0426517E0,6.5768394E0,1.2813706E0,9.106707E0,5.0745497E0,2.9608736E0,1.2891888E1,7.9232416E0,2.6064789E1,4.068636E0,6.222146E0,5.5890245E0,3.5799334E0,1.7439343E0,7.137219E0],"tree_param":{"num_deleted":"0","num_feature":"128","num_nodes":"63","size_leaf_vector":"1"}},{"base_weights":[-5.938798E-3,-1.2131112E-2,7.0233166E-1,-5.6976676E-3,-6.3151604E-1,8.494302E-1,3.910676E-1,-4.9244297E-1,-1.7833496E-3,-5.2484334E-1,-1.1074022E0,8.814506E-1,-1.954519E-1,7.1018463E-1,8.444621E-2,-8.181402E-3,6.0179746E-1,-6.6278666E-2,-6.444527E-1,-2.1717508E-1,-1.3869201E0,1.2322136E0,7.5697553E-1,-1.07572064E-1,8.0028665E-1,6.801371E-1,-2.071653E-1,4.6356104E-2,-7.795118E-2,7.044104E-1,-4.950023E-1,-1.6143414E-1,4.146111E-1,-2.4507903E-2,-7.170502E-1,-4.0076485E-1,2.1901214E-1,-8.349847E-1,-8.6369646E-1,1.3637067E0,2.708213E-1,-1.0538241E-1,8.430365E-1,9.676412E-1,1.7171243E-1,-1.12066746E-1,1.0849631E0,3.2501853E-1,-7.315996E-1,7.052888E-2,-9.192517E-4,-3.321276E-2,-3.4973764E-1,7.342963E-2,4.5423937E-1,-4.0126818E-1,2.4221425E-1,2.3748678E-4,-4.3662626E-1,1.21184915E-1,-3.763272E-1,-4.226121E-1,-1.4875378E-1,-1.3282514E-1,3.47564E-1,-6.8708694E-1,-2.050341E-1,7.0681554E-1,1.9808507E-1,-5.024572E-2,2.879188E-1,3.913237E-1,-5.3980774E-1,3.7683994E-1,7.344308E-1,2.0185187E-1,6.132809E-1,3.387375E-1,-2.7565363E-1,-3.750829E-1,2.883867E-1,6.639606E-1,4.234889E-2,-6.628246E-2,5.489553E-1,-5.378763E-1,-1.62845E-1],"categories":[],"categories_nodes":[],"categories_segments":[],"categories_sizes":[],"default_left":[0,0,0,0,0,0,0,0,0,0,0,0,0,0,0,0,1,0,0,0,0,0,0,0,0,0,0,0,0,0,0,0,0,0,0,0,0,0,0,0,0,0,0,0,0,0,0,0,0,0,0,0,0,0,0,0,0,0,0,0,0,0,0,0,0,0,0,0,0,0,0,0,0,0,0,0,0,0,0,0,0,0,0,0,0,0,0],"id":9,"left_children":[1,3,5,7,9,11,13,-1,15,17,19,21,-1,23,25,27,29,31,33,35,37,39,41,-1,43,45,47,49,51,53,55,57,-1,59,61,-1,63,65,-1,67,69,71,73,75,77,79,81,83,85,-1,-1,-1,-1,-1,-1,-1,-1,-1,-1,-1,-1,-1,-1,-1,-1,-1,-1,-1,-1,-1,-1,-1,-1,-1,-1,-1,-1,-1,-1,-1,-1,-1,-1,-1,-1,-1,-1],"loss_changes":[6.0517788E1,5.4499947E1,5.143547E0,5.1888718E1,6.5562553E0,3.5361252E0,3.8767614E0,0E0,5.2082188E1,6.3612022E0,5.8809834E0,2.500965E0,0E0,1.8046293E0,3.9022894E0,5.0782166E1,1.6269623E1,2.2870383E0,4.1449738E0,1.9909652E0,2.0758934E0,2.0333328E0,4.589161E0,0E0,1.7330694E0,2.478704E0,4.5089E0,3.418882E1,4.1897343E1,1.4631851E1,4.2110233E0,2.7293494E0,0E0,2.267667E0,4.1987534E0,0E0,1.3069732E0,1.5164843E0,0E0,2.3558617E-1,4.581761E-1,6.374405E0,1.9824715E0,1.5552435E0,2.2062333E0,1.9236337E0,1.0923781E0,3.0766973E0,7.693548E-1,0E0,0E0,0E0,0E0,0E0,0E0,0E0,0E0,0E0,0E0,0E0,0E0,0E0,0E0,0E0,0E0,0E0,0E0,0E0,0E0,0E0,0E0,0E0,0E0,0E0,0E0,0E0,0E0,0E0,0E0,0E0,0E0,0E0,0E0,0E0,0E0,0E0,0E0],"parents":[2147483647,0,0,1,1,2,2,3,3,4,4,5,5,6,6,8,8,9,9,10,10,11,11,13,13,14,14,15,15,16,16,17,17,18,18,19,19,20,20,21,21,22,22,24,24,25,25,26,26,27,27,28,28,29,29,30,30,31,31,33,33,34,34,36,36,37,37,39,39,40,40,41,41,42,42,43,43,44,44,45,45,46,46,47,47,48,48],"right_children":[2,4,6,8,10,12,14,-1,16,18,20,22,-1,24,26,28,30,32,34,36,38,40,42,-1,44,46,48,50,52,54,56,58,-1,60,62,-1,64,66,-1,68,70,72,74,76,78,80,82,84,86,-1,-1,-1,-1,-1,-1,-1,-1,-1,-1,-1,-1,-1,-1,-1,-1,-1,-1,-1,-1,-1,-1,-1,-1,-1,-1,-1,-1,-1,-1,-1,-1,-1,-1,-1,-1,-1,-1],"split_conditions":[1E0,1E0,1E0,1E0,1.37E2,2.6E1,2.9E1,-4.9244297E-1,1E0,6.25E1,4E0,7.6E1,-1.954519E-1,9E0,6.75E1,1E0,1E0,1.19E2,3E0,1E0,1E0,5.9E1,8.6E1,-1.07572064E-1,8.75E1,5.25E1,9.9E1,6.75E1,1E0,4E0,2E1,9.6E1,4.146111E-1,1E0,2.00001E0,-4.0076485E-1,7.25E1,1.5E2,-8.6369646E-1,2E1,7.9E1,7.75E1,2E1,8.4E1,9.7E1,8E0,7E0,2E0,6E0,7.052888E-2,-9.192517E-4,-3.321276E-2,-3.4973764E-1,7.342963E-2,4.5423937E-1,-4.0126818E-1,2.4221425E-1,2.3748678E-4,-4.3662626E-1,1.21184915E-1,-3.763272E-1,-4.226121E-1,-1.4875378E-1,-1.3282514E-1,3.47564E-1,-6.8708694E-1,-2.050341E-1,7.0681554E-1,1.9808507E-1,-5.024572E-2,2.879188E-1,3.913237E-1,-5.3980774E-1,3.7683994E-1,7.344308E-1,2.0185187E-1,6.132809E-1,3.387375E-1,-2.7565363E-1,-3.750829E-1,2.883867E-1,6.639606E-1,4.234889E-2,-6.628246E-2,5.489553E-1,-5.378763E-1,-1.62845E-1],"split_indices":[80,99,8,3,4,0,7,0,91,2,0,4,0,7,2,1,8,4,0,5,5,7,4,0,2,2,4,2,14,0,0,4,0,1,8,0,2,4,0,0,7,2,0,4,4,0,0,1,0,0,0,0,0,0,0,0,0,0,0,0,0,0,0,0,0,0,0,0,0,0,0,0,0,0,0,0,0,0,0,0,0,0,0,0,0,0,0],"split_type":[0,0,0,0,0,0,0,0,0,0,0,0,0,0,0,0,0,0,0,0,0,0,0,0,0,0,0,0,0,0,0,0,0,0,0,0,0,0,0,0,0,0,0,0,0,0,0,0,0,0,0,0,0,0,0,0,0,0,0,0,0,0,0,0,0,0,0,0,0,0,0,0,0,0,0,0,0,0,0,0,0,0,0,0,0,0,0],"sum_hessian":[1.379553E4,1.36769375E4,1.1859275E2,1.3537337E4,1.3960077E2,7.935965E1,3.923311E1,5.2902386E1,1.3484435E4,1.157562E2,2.3844563E1,7.764452E1,1.7151228E0,1.8579882E1,2.0653225E1,1.3343973E4,1.4046179E2,2.4268486E1,9.148772E1,6.122424E0,1.7722137E1,1.8005856E1,5.9638668E1,1.525503E0,1.7054379E1,6.3497996E0,1.4303426E1,7.489741E3,5.8542314E3,1.2877206E2,1.1689727E1,2.2678415E1,1.5900697E0,9.730655E0,8.1757065E1,2.2587812E0,3.8636432E0,8.078548E0,9.64359E0,1.5471317E1,2.5345392E0,5.39133E0,5.4247337E1,1.3042469E1,4.0119095E0,2.3920233E0,3.9577763E0,7.287991E0,7.0154347E0,2.5254143E3,4.964327E3,5.748733E3,1.054987E2,3.496396E1,9.380811E1,9.033792E0,2.6559348E0,1.929006E1,3.388355E0,7.608979E0,2.1216755E0,6.184748E1,1.9909582E1,2.1336946E0,1.7299485E0,2.5759118E0,5.502637E0,1.4273739E1,1.1975783E0,1.4454513E0,1.0890878E0,2.9233239E0,2.468006E0,4.9398422E1,4.848915E0,4.909217E0,8.133252E0,2.397686E0,1.6142234E0,1.1955303E0,1.196493E0,2.9207711E0,1.0370052E0,5.0981574E0,2.1898336E0,2.9034772E0,4.1119576E0],"tree_param":{"num_deleted":"0","num_feature":"128","num_nodes":"87","size_leaf_vector":"1"}},{"base_weights":[-3.2811838E-3,-6.1366935E-3,1.2668393E0,-1.4081321E-2,4.40242E-1,1.430922E0,-3.6382145E-1,-2.1869335E-2,4.5487258E-1,5.904498E-1,-2.043905E-1,1.678765E0,8.291728E-1,-3.5118723E-1,4.1425876E-2,-2.7671129E-2,5.97171E-1,2.8330782E-1,6.267649E-1,4.7447255E-1,9.332852E-1,-4.179969E-1,8.352684E-2,3.7402633E-1,8.831196E-1,1.0952662E0,-3.6069316E-1,-3.415268E-2,5.285727E-1,6.722974E-1,-5.144965E-1,-7.137639E-2,5.0331366E-1,7.9961354E-1,3.6387378E-1,3.4483442E-1,7.9393E-1,1.3201844E0,5.984788E-1,-4.7975358E-1,-1.603108E-1,-1.8987857E-1,9.1502017E-1,4.3988156E-1,8.7851995E-1,-6.590703E-2,2.0330353E-3,-2.6868403E-1,2.897237E-1,-1.6193773E-1,3.5695297E-1,1.277114E-1,-3.43171E-1,-4.4348386E-1,4.21312E-2,3.703477E-1,1.9042607E-1,3.011628E-1,5.432009E-1,4.165E-1,7.4414596E-2,2.5766826E-1,-1.1475276E-1,4.7591323E-1,1.1987185E-1,7.68827E-1,4.5569855E-1,3.6356047E-1,-3.3257997E-1,1.515615E-1,-2.678974E-1,1.4506975E-1,-3.1068638E-1,5.92803E-1,-4.1944657E-2,-3.752695E-1,4.589053E-1],"categories":[],"categories_nodes":[],"categories_segments":[],"categories_sizes":[],"default_left":[0,0,1,0,0,0,0,0,0,0,0,0,0,0,0,0,0,0,0,0,0,0,0,0,0,0,0,0,0,0,0,0,0,0,0,0,0,0,0,0,0,0,0,0,0,0,0,0,0,0,0,0,0,0,0,0,0,0,0,0,0,0,0,0,0,0,0,0,0,0,0,0,0,0,0,0,0],"id":10,"left_children":[1,3,5,7,9,11,13,15,17,19,21,23,25,-1,-1,27,29,31,33,35,37,39,41,-1,-1,43,-1,45,47,49,51,53,55,57,59,61,63,65,67,-1,69,71,73,75,-1,-1,-1,-1,-1,-1,-1,-1,-1,-1,-1,-1,-1,-1,-1,-1,-1,-1,-1,-1,-1,-1,-1,-1,-1,-1,-1,-1,-1,-1,-1,-1,-1],"loss_changes":[4.97289E1,4.8517803E1,8.750042E0,4.9100197E1,2.3285992E1,2.8059578E0,6.0398763E-1,4.7506035E1,6.299179E0,7.282196E0,2.8611336E0,2.2240067E-1,4.993298E0,0E0,0E0,4.7250576E1,1.0603188E1,8.755266E0,4.656616E0,5.8227158E0,5.4375916E0,3.5506916E0,4.812729E0,0E0,0E0,3.1705284E0,0E0,4.83394E1,8.497704E0,5.0176888E0,1.2789028E0,5.6158957E0,1.7262764E0,3.0151138E0,4.4183497E0,1.0545713E1,3.4230156E0,5.076065E-1,4.970681E0,0E0,3.5014818E0,3.5325394E0,1.5107226E0,4.046769E0,0E0,0E0,0E0,0E0,0E0,0E0,0E0,0E0,0E0,0E0,0E0,0E0,0E0,0E0,0E0,0E0,0E0,0E0,0E0,0E0,0E0,0E0,0E0,0E0,0E0,0E0,0E0,0E0,0E0,0E0,0E0,0E0,0E0],"parents":[2147483647,0,0,1,1,2,2,3,3,4,4,5,5,6,6,7,7,8,8,9,9,10,10,11,11,12,12,15,15,16,16,17,17,18,18,19,19,20,20,21,21,22,22,25,25,27,27,28,28,29,29,30,30,31,31,32,32,33,33,34,34,35,35,36,36,37,37,38,38,40,40,41,41,42,42,43,43],"right_children":[2,4,6,8,10,12,14,16,18,20,22,24,26,-1,-1,28,30,32,34,36,38,40,42,-1,-1,44,-1,46,48,50,52,54,56,58,60,62,64,66,68,-1,70,72,74,76,-1,-1,-1,-1,-1,-1,-1,-1,-1,-1,-1,-1,-1,-1,-1,-1,-1,-1,-1,-1,-1,-1,-1,-1,-1,-1,-1,-1,-1,-1,-1,-1,-1],"split_conditions":[1E0,1E0,1E0,1E0,4.4E1,9E0,6E0,1E0,7E0,1.27E2,1E0,5.75E1,2E1,-3.5118723E-1,4.1425876E-2,1E0,4E1,1E0,1E0,8.75E1,1.8E1,5.1E1,1.5E1,3.7402633E-1,8.831196E-1,1.7E1,-3.6069316E-1,1E0,1E0,2E0,5.25E1,6.25E1,3E0,2E0,6.2E1,9.6E1,1E0,1E0,2.06E2,-4.7975358E-1,1E0,1E0,2.8E1,1E0,8.7851995E-1,-6.590703E-2,2.0330353E-3,-2.6868403E-1,2.897237E-1,-1.6193773E-1,3.5695297E-1,1.277114E-1,-3.43171E-1,-4.4348386E-1,4.21312E-2,3.703477E-1,1.9042607E-1,3.011628E-1,5.432009E-1,4.165E-1,7.4414596E-2,2.5766826E-1,-1.1475276E-1,4.7591323E-1,1.1987185E-1,7.68827E-1,4.5569855E-1,3.6356047E-1,-3.3257997E-1,1.515615E-1,-2.678974E-1,1.4506975E-1,-3.1068638E-1,5.92803E-1,-4.1944657E-2,-3.752695E-1,4.589053E-1],"split_indices":[110,56,8,79,7,0,7,29,0,4,5,2,7,0,0,27,7,5,8,2,7,7,0,0,0,0,0,5,0,7,2,2,0,1,4,4,8,5,4,0,1,8,0,5,0,0,0,0,0,0,0,0,0,0,0,0,0,0,0,0,0,0,0,0,0,0,0,0,0,0,0,0,0,0,0,0,0],"split_type":[0,0,0,0,0,0,0,0,0,0,0,0,0,0,0,0,0,0,0,0,0,0,0,0,0,0,0,0,0,0,0,0,0,0,0,0,0,0,0,0,0,0,0,0,0,0,0,0,0,0,0,0,0,0,0,0,0,0,0,0,0,0,0,0,0,0,0,0,0,0,0,0,0,0,0,0,0],"sum_hessian":[1.3708207E4,1.367845E4,2.9756994E1,1.3440211E4,2.3823979E2,2.714778E1,2.6092148E0,1.322159E4,2.186203E2,1.9328574E2,4.4954056E1,1.7960546E1,9.187233E0,1.1586025E0,1.4506122E0,1.3099771E4,1.2181887E2,1.1073975E2,1.0788055E2,1.4620891E2,4.7076828E1,2.5548088E1,1.940597E1,2.3636234E0,1.5596923E1,8.092158E0,1.0950745E0,1.2949814E4,1.4995729E2,1.1447771E2,7.34116E0,4.2652596E1,6.808716E1,6.3854897E1,4.402565E1,1.05482704E2,4.0726204E1,2.047406E1,2.660277E1,7.35935E0,1.8188738E1,1.5184694E1,4.221276E0,4.9020925E0,3.1900656E0,3.6416812E3,9.308133E3,6.3954535E0,1.4356184E2,4.3178496E0,1.1015986E2,1.2508091E0,6.0903506E0,6.0820494E0,3.6570545E1,2.145329E1,4.663387E1,3.9667206E1,2.4187693E1,1.29346695E1,3.1090982E1,8.141583E1,2.4066874E1,3.1137201E1,9.589002E0,1.1561816E1,8.912244E0,2.4530113E1,2.0726562E0,8.227196E0,9.961542E0,7.3432493E0,7.841445E0,3.1744707E0,1.0468049E0,1.2408926E0,3.6612E0],"tree_param":{"num_deleted":"0","num_feature":"128","num_nodes":"77","size_leaf_vector":"1"}},{"base_weights":[-1.5703399E-3,4.0652826E-2,-8.419221E-2,4.8425548E-2,-7.3245656E-1,-1.8931586E-1,-1.8832149E-2,4.012159E-2,7.252823E-1,-3.9666173E-1,-9.4352674E-1,-5.718225E-2,-2.85854E-1,-2.8099505E-2,8.976727E-1,4.938985E-2,-5.4835415E-1,7.863348E-1,-6.275079E-1,-6.9100463E-1,1.9639298E-2,-5.304599E-1,-1.2859E0,-7.075044E-2,1.0762331E0,-2.1269743E-1,-4.5389274E-1,-3.4782078E-2,1.0419729E0,1.1326032E0,-6.8805665E-3,4.229981E-2,8.053562E-1,-5.1285416E-1,-8.870159E-1,-5.475417E-3,8.541224E-1,-4.7450072E-1,1.322941E-1,-9.5171237E-1,-3.2734743E-1,4.2331174E-1,-7.610378E-1,3.8242847E-1,-6.862798E-1,-1.5177352E0,-5.3755176E-1,-8.139353E-2,1.3059433E0,1.3020447E0,-2.7059378E-2,-2.2430536E-1,9.597499E-1,-4.6690273E-1,5.5612546E-1,-2.7578799E-2,-7.6127934E-1,1.1384389E0,-1.1763797E-1,1.5036137E0,6.74741E-1,-4.7881266E-1,4.4713527E-1,1.8922795E-2,6.287395E-1,4.276888E-1,-3.2969964E-1,-3.7888026E-1,-1.5227798E-1,-3.3833963E-1,3.326372E-1,4.4309762E-1,-1.7480491E-1,-6.1631703E-1,2.2206128E-1,1.3467951E-1,-3.574252E-1,-2.3977868E-1,3.4332436E-1,4.0029787E-2,-5.5451953E-1,4.1104642E-1,-4.6502754E-2,-3.7219882E-1,1.0931541E-1,-3.4902933E-1,-8.449525E-1,-4.2692053E-1,3.076454E-2,-4.881708E-2,4.0373608E-1,7.78942E-1,7.880716E-2,2.3137511E-1,8.890313E-1,-1.17981784E-1,4.5090136E-1,7.7999306E-1,-2.7195504E-1,-2.4162376E-1,2.754571E-1,-7.0917234E-2,1.0275254E-2,-6.6016257E-1,-2.0112874E-1,2.398531E-1,6.3180816E-1,3.988052E-1,8.486844E-1,5.139803E-1,-5.9596765E-1,-4.309116E-1,5.2857056E-2],"categories":[],"categories_nodes":[],"categories_segments":[],"categories_sizes":[],"default_left":[0,0,0,0,0,0,0,0,0,0,0,0,0,0,0,0,0,0,0,0,0,0,0,0,0,0,0,0,0,0,0,0,0,0,0,0,0,0,0,0,0,0,0,0,0,0,0,0,0,0,0,0,0,0,0,0,0,0,0,0,0,0,0,0,0,0,0,0,0,0,0,0,0,0,0,0,0,0,0,0,0,0,0,0,0,0,0,0,0,0,0,0,0,0,0,0,0,0,0,0,0,0,0,0,0,0,0,0,0,0,0,0,0],"id":11,"left_children":[1,3,5,7,9,11,13,15,17,19,21,23,25,27,29,31,33,35,37,39,41,43,45,47,49,51,53,55,57,59,61,63,65,67,-1,69,71,-1,-1,73,75,77,79,81,83,85,87,89,91,93,-1,95,97,99,-1,101,103,105,-1,107,109,111,-1,-1,-1,-1,-1,-1,-1,-1,-1,-1,-1,-1,-1,-1,-1,-1,-1,-1,-1,-1,-1,-1,-1,-1,-1,-1,-1,-1,-1,-1,-1,-1,-1,-1,-1,-1,-1,-1,-1,-1,-1,-1,-1,-1,-1,-1,-1,-1,-1,-1,-1],"loss_changes":[4.7504013E1,5.418861E1,3.163934E1,5.0123383E1,5.9878044E0,2.2504162E1,2.4154343E1,4.8110344E1,9.420364E0,4.4702535E0,7.0102158E0,1.1557442E1,1.2441292E1,2.0154387E1,6.0575676E0,4.6489983E1,5.0415535E0,5.579468E0,1.7492166E0,1.7110825E0,5.375951E0,4.0111194E0,4.2222137E0,1.0929833E1,2.3404722E0,9.911385E0,6.804413E0,1.4615662E1,2.4231625E0,2.8254318E0,3.3470724E0,4.6504326E1,6.4693184E0,6.6220474E0,0E0,4.5849776E0,4.0036697E0,0E0,0E0,5.2142467E0,2.6047826E0,2.9953718E0,1.7933095E0,1.0138679E0,1.3654547E0,1.8717537E0,1.647373E0,1.0674199E1,1.4109411E0,2.1546097E0,0E0,9.484962E0,7.3232923E0,5.3672943E0,0E0,1.523793E1,4.9726896E0,7.4910164E-1,0E0,2.4290848E-1,9.092797E0,1.2453699E0,0E0,0E0,0E0,0E0,0E0,0E0,0E0,0E0,0E0,0E0,0E0,0E0,0E0,0E0,0E0,0E0,0E0,0E0,0E0,0E0,0E0,0E0,0E0,0E0,0E0,0E0,0E0,0E0,0E0,0E0,0E0,0E0,0E0,0E0,0E0,0E0,0E0,0E0,0E0,0E0,0E0,0E0,0E0,0E0,0E0,0E0,0E0,0E0,0E0,0E0,0E0],"parents":[2147483647,0,0,1,1,2,2,3,3,4,4,5,5,6,6,7,7,8,8,9,9,10,10,11,11,12,12,13,13,14,14,15,15,16,16,17,17,18,18,19,19,20,20,21,21,22,22,23,23,24,24,25,25,26,26,27,27,28,28,29,29,30,30,31,31,32,32,33,33,35,35,36,36,39,39,40,40,41,41,42,42,43,43,44,44,45,45,46,46,47,47,48,48,49,49,51,51,52,52,53,53,55,55,56,56,57,57,59,59,60,60,61,61],"right_children":[2,4,6,8,10,12,14,16,18,20,22,24,26,28,30,32,34,36,38,40,42,44,46,48,50,52,54,56,58,60,62,64,66,68,-1,70,72,-1,-1,74,76,78,80,82,84,86,88,90,92,94,-1,96,98,100,-1,102,104,106,-1,108,110,112,-1,-1,-1,-1,-1,-1,-1,-1,-1,-1,-1,-1,-1,-1,-1,-1,-1,-1,-1,-1,-1,-1,-1,-1,-1,-1,-1,-1,-1,-1,-1,-1,-1,-1,-1,-1,-1,-1,-1,-1,-1,-1,-1,-1,-1,-1,-1,-1,-1,-1,-1],"split_conditions":[1E0,1E0,6E0,1E0,8.2E1,7.25E1,1E0,1E0,8.7E1,1.9E1,5E0,1E0,3.5E1,1E0,3E0,1E0,2.9E1,1.2E1,1.04E2,6.7E1,8.25E1,8E0,2.4E1,1E0,1E0,1E0,1E0,1E0,1.87E2,8.1E1,9.25E1,1E0,2.4E1,6E0,-8.870159E-1,9.4E1,3.3E1,-4.7450072E-1,1.322941E-1,1.8E1,7.25E1,3E0,2.5E1,6.75E1,2E0,1E0,1.2E2,1E0,6.8E1,5.75E1,-2.7059378E-2,1E0,1.07E2,1E0,5.5612546E-1,2.00001E0,9E0,2.00001E0,-1.1763797E-1,5.3E1,3E1,1.5E1,4.4713527E-1,1.8922795E-2,6.287395E-1,4.276888E-1,-3.2969964E-1,-3.7888026E-1,-1.5227798E-1,-3.3833963E-1,3.326372E-1,4.4309762E-1,-1.7480491E-1,-6.1631703E-1,2.2206128E-1,1.3467951E-1,-3.574252E-1,-2.3977868E-1,3.4332436E-1,4.0029787E-2,-5.5451953E-1,4.1104642E-1,-4.6502754E-2,-3.7219882E-1,1.0931541E-1,-3.4902933E-1,-8.449525E-1,-4.2692053E-1,3.076454E-2,-4.881708E-2,4.0373608E-1,7.78942E-1,7.880716E-2,2.3137511E-1,8.890313E-1,-1.17981784E-1,4.5090136E-1,7.7999306E-1,-2.7195504E-1,-2.4162376E-1,2.754571E-1,-7.0917234E-2,1.0275254E-2,-6.6016257E-1,-2.0112874E-1,2.398531E-1,6.3180816E-1,3.988052E-1,8.486844E-1,5.139803E-1,-5.9596765E-1,-4.309116E-1,5.2857056E-2],"split_indices":[8,59,0,105,4,2,55,101,7,7,0,72,7,57,1,111,0,7,4,4,2,7,7,13,1,81,60,122,4,4,2,88,0,0,0,4,0,0,0,0,2,0,7,2,1,5,4,112,7,2,0,45,4,109,0,8,0,8,0,4,7,7,0,0,0,0,0,0,0,0,0,0,0,0,0,0,0,0,0,0,0,0,0,0,0,0,0,0,0,0,0,0,0,0,0,0,0,0,0,0,0,0,0,0,0,0,0,0,0,0,0,0,0],"split_type":[0,0,0,0,0,0,0,0,0,0,0,0,0,0,0,0,0,0,0,0,0,0,0,0,0,0,0,0,0,0,0,0,0,0,0,0,0,0,0,0,0,0,0,0,0,0,0,0,0,0,0,0,0,0,0,0,0,0,0,0,0,0,0,0,0,0,0,0,0,0,0,0,0,0,0,0,0,0,0,0,0,0,0,0,0,0,0,0,0,0,0,0,0,0,0,0,0,0,0,0,0,0,0,0,0,0,0,0,0,0,0,0,0],"sum_hessian":[1.3615116E4,9.010757E3,4.604359E3,8.921994E3,8.876299E1,1.7644923E3,2.8398665E3,8.814908E3,1.0708565E2,3.5370613E1,5.3392376E1,7.455864E2,1.0189059E3,2.812398E3,2.7468584E1,8.679132E3,1.3577682E2,1.0286212E2,4.2235203E0,2.033384E1,1.5036776E1,2.5353378E1,2.8039E1,7.3769305E2,7.893391E0,7.1144165E2,3.0746426E2,2.795905E3,1.6492853E1,2.1605177E1,5.863407E0,8.599534E3,7.959717E1,1.3333344E2,2.4433887E0,8.184161E0,9.467796E1,3.0577724E0,1.1657481E0,1.0901464E1,9.432374E0,1.0213397E1,4.823379E0,3.4845355E0,2.1868843E1,2.0622211E1,7.4167886E0,7.329674E2,4.7256274E0,6.4524794E0,1.4409115E0,7.0526776E2,6.173886E0,3.0562732E2,1.8369715E0,2.7694834E3,2.642169E1,1.5435726E1,1.0571265E0,1.0672856E1,1.093232E1,4.1557236E0,1.7076834E0,8.569155E3,3.0378975E1,7.737098E1,2.226191E0,6.0069237E1,7.3264206E1,4.086278E0,4.0978837E0,9.247773E1,2.200231E0,9.172379E0,1.7290865E0,3.8337543E0,5.5986195E0,2.120847E0,8.09255E0,1.6369404E0,3.1864386E0,1.4315484E0,2.052987E0,2.0715754E1,1.1530882E0,4.457092E0,1.616512E1,4.5757403E0,2.8410485E0,7.206897E2,1.2277697E1,3.582895E0,1.1427323E0,3.0489058E0,3.4035738E0,6.9882355E2,6.444217E0,4.38572E0,1.7881663E0,3.013138E2,4.313493E0,8.202705E2,1.9492128E3,9.285439E0,1.7136251E1,3.2364528E0,1.2199273E1,3.4001176E0,7.272739E0,9.570637E0,1.3616827E0,2.2240334E0,1.9316902E0],"tree_param":{"num_deleted":"0","num_feature":"128","num_nodes":"113","size_leaf_vector":"1"}},{"base_weights":[-1.304316E-3,-6.8213516E-3,6.3369983E-1,-1.274717E-2,5.901534E-1,-4.4801423E-1,7.8583777E-1,-7.6509225E-3,-6.1939555E-1,2.3076107E-1,7.478132E-1,-3.7324075E-2,-4.664327E-1,9.376013E-1,3.728581E-1,-1.35454E-2,4.655882E-1,4.9988508E-1,-6.978415E-1,6.9074833E-1,-9.3463704E-2,1.1701901E0,6.3080955E-1,-5.0524145E-1,4.8082328E-1,1.0047158E0,-5.3820765E-1,8.692309E-1,2.2206288E-3,-1.8442053E-2,5.7025087E-1,3.1095397E-1,6.4574486E-1,-4.156295E-1,8.873924E-1,-1.0388764E0,-4.3465593E-1,-3.7662795E-1,8.978683E-1,-3.4963197E-1,7.3752266E-1,1.5243592E0,-1.5522714E-1,7.498924E-1,2.906883E-1,-7.732022E-2,-3.73973E-1,6.5090346E-1,-9.253634E-2,7.989516E-1,1.4690257E0,-4.0702507E-1,2.7464876E-2,1.1810769E0,3.686531E-2,2.3821898E-1,-3.6870018E-1,-1.0977776E-2,3.903321E-1,4.9446702E-1,1.9750796E-1,1.0889293E-1,3.391351E-1,1.8119203E-1,4.278541E-1,-6.836166E-2,5.9171784E-1,-6.094829E-1,-3.490436E-1,-2.8327084E-1,-2.2547835E-2,4.948057E-1,-7.3834896E-2,-2.2956124E-1,3.9739296E-1,6.8535835E-1,-2.6242158E-1,5.3866917E-1,1.0705405E0,1.19208016E-1,-3.3245713E-1,4.0835726E-1,1.2094039E-2,-1.6427174E-1,4.2601025E-1,2.1603815E-1,-2.725884E-1,-3.6488742E-1,3.0638087E-1,4.3214422E-1,-6.938613E-2,3.1819382E-1,7.9708856E-1,1.8051797E-1,7.2336674E-1,-2.376058E-1,2.085588E-1,4.770768E-1,-2.2994635E-1,-5.050864E-1,-1.7295893E-2],"categories":[],"categories_nodes":[],"categories_segments":[],"categories_sizes":[],"default_left":[0,0,0,0,0,0,0,0,0,0,0,0,0,0,0,0,0,0,0,0,0,0,0,0,0,0,0,0,0,0,0,0,0,0,0,0,0,0,0,0,0,0,0,0,0,0,0,0,0,0,0,0,0,0,0,0,0,0,0,0,0,0,0,0,0,0,0,0,0,0,0,0,0,0,0,0,0,0,0,0,0,0,0,0,0,0,0,0,0,0,0,0,0,0,0,0,0,0,0,0,0],"id":12,"left_children":[1,3,5,7,9,11,13,15,17,19,21,23,-1,25,27,29,31,33,35,37,39,41,43,45,47,49,51,53,55,57,59,61,63,-1,65,67,69,-1,71,73,75,77,79,81,83,85,-1,-1,87,89,91,-1,-1,93,95,97,99,-1,-1,-1,-1,-1,-1,-1,-1,-1,-1,-1,-1,-1,-1,-1,-1,-1,-1,-1,-1,-1,-1,-1,-1,-1,-1,-1,-1,-1,-1,-1,-1,-1,-1,-1,-1,-1,-1,-1,-1,-1,-1,-1,-1],"loss_changes":[4.7338024E1,4.739544E1,1.9505661E1,4.1005585E1,7.288925E0,2.9495776E0,6.068241E0,3.670342E1,1.005051E1,6.2687097E0,3.7632217E0,2.4628246E0,0E0,7.892151E0,5.3660207E0,3.7157455E1,4.3086853E0,4.7711678E0,8.853764E0,5.855879E0,5.6396008E0,8.962648E0,2.7588081E0,4.925002E-1,2.4068477E0,5.6421127E0,6.794734E-1,3.19345E0,1.6378539E0,3.6200737E1,7.5417633E0,2.8992395E0,4.082859E0,0E0,2.1446438E0,1.8763771E0,3.0691824E0,0E0,1.6426897E0,2.8713124E0,5.7381477E0,1.7629013E0,1.1270627E0,2.5893612E0,7.472493E0,9.5839477E-1,0E0,0E0,2.15216E0,3.2829552E0,1.1440887E0,0E0,0E0,1.446948E0,1.0610129E0,6.1511803E0,1.5248562E0,0E0,0E0,0E0,0E0,0E0,0E0,0E0,0E0,0E0,0E0,0E0,0E0,0E0,0E0,0E0,0E0,0E0,0E0,0E0,0E0,0E0,0E0,0E0,0E0,0E0,0E0,0E0,0E0,0E0,0E0,0E0,0E0,0E0,0E0,0E0,0E0,0E0,0E0,0E0,0E0,0E0,0E0,0E0,0E0],"parents":[2147483647,0,0,1,1,2,2,3,3,4,4,5,5,6,6,7,7,8,8,9,9,10,10,11,11,13,13,14,14,15,15,16,16,17,17,18,18,19,19,20,20,21,21,22,22,23,23,24,24,25,25,26,26,27,27,28,28,29,29,30,30,31,31,32,32,34,34,35,35,36,36,38,38,39,39,40,40,41,41,42,42,43,43,44,44,45,45,48,48,49,49,50,50,53,53,54,54,55,55,56,56],"right_children":[2,4,6,8,10,12,14,16,18,20,22,24,-1,26,28,30,32,34,36,38,40,42,44,46,48,50,52,54,56,58,60,62,64,-1,66,68,70,-1,72,74,76,78,80,82,84,86,-1,-1,88,90,92,-1,-1,94,96,98,100,-1,-1,-1,-1,-1,-1,-1,-1,-1,-1,-1,-1,-1,-1,-1,-1,-1,-1,-1,-1,-1,-1,-1,-1,-1,-1,-1,-1,-1,-1,-1,-1,-1,-1,-1,-1,-1,-1,-1,-1,-1,-1,-1,-1],"split_conditions":[1E0,1E0,3E0,1E0,1E0,1E0,2.00001E0,1E0,4E1,9.2E1,4E0,2E0,-4.664327E-1,2.8E1,8.1E1,1E0,1E0,1.6E1,5E0,4E0,1.7E1,1E0,1.26E2,6.75E1,1.6E1,1.6E1,2.6E1,3E0,1.7E1,1E0,4E0,1.64E2,8.5E1,-4.156295E-1,1.1E1,1.3E1,2.00001E0,-3.7662795E-1,1E0,5.6E1,1.65E2,1.27E2,9.1E1,6.3E1,1.51E2,2.4E1,-3.73973E-1,6.5090346E-1,3.1E1,5.4E1,7E0,-4.0702507E-1,2.7464876E-2,6.75E1,5.2E1,1E0,1.9E1,-1.0977776E-2,3.903321E-1,4.9446702E-1,1.9750796E-1,1.0889293E-1,3.391351E-1,1.8119203E-1,4.278541E-1,-6.836166E-2,5.9171784E-1,-6.094829E-1,-3.490436E-1,-2.8327084E-1,-2.2547835E-2,4.948057E-1,-7.3834896E-2,-2.2956124E-1,3.9739296E-1,6.8535835E-1,-2.6242158E-1,5.3866917E-1,1.0705405E0,1.19208016E-1,-3.3245713E-1,4.0835726E-1,1.2094039E-2,-1.6427174E-1,4.2601025E-1,2.1603815E-1,-2.725884E-1,-3.6488742E-1,3.0638087E-1,4.3214422E-1,-6.938613E-2,3.1819382E-1,7.9708856E-1,1.8051797E-1,7.2336674E-1,-2.376058E-1,2.085588E-1,4.770768E-1,-2.2994635E-1,-5.050864E-1,-1.7295893E-2],"split_indices":[126,10,0,66,5,1,8,16,4,4,0,0,0,0,4,112,5,4,0,0,0,8,4,2,7,0,7,1,7,65,0,4,4,0,7,7,8,0,6,7,4,4,4,7,4,7,0,0,7,7,7,0,0,2,4,5,7,0,0,0,0,0,0,0,0,0,0,0,0,0,0,0,0,0,0,0,0,0,0,0,0,0,0,0,0,0,0,0,0,0,0,0,0,0,0,0,0,0,0,0,0],"split_type":[0,0,0,0,0,0,0,0,0,0,0,0,0,0,0,0,0,0,0,0,0,0,0,0,0,0,0,0,0,0,0,0,0,0,0,0,0,0,0,0,0,0,0,0,0,0,0,0,0,0,0,0,0,0,0,0,0,0,0,0,0,0,0,0,0,0,0,0,0,0,0,0,0,0,0,0,0,0,0,0,0,0,0,0,0,0,0,0,0,0,0,0,0,0,0,0,0,0,0,0,0],"sum_hessian":[1.35100205E4,1.3394635E4,1.1538585E2,1.3263949E4,1.3068481E2,1.3987654E1,1.013982E2,1.3154456E4,1.0949353E2,4.059971E1,9.008511E1,8.156078E0,5.831575E0,7.322049E1,2.817771E1,1.2993585E4,1.6087152E2,6.819494E0,1.02674034E2,1.6318172E1,2.4281536E1,1.758888E1,7.249623E1,4.298862E0,3.8572164E0,7.034085E1,2.8796415E0,1.14705925E1,1.6707117E1,1.2886466E4,1.07118195E2,8.80346E1,7.283692E1,1.2794056E0,5.540088E0,4.343884E1,5.92352E1,1.716214E0,1.4601958E1,1.9002798E1,5.2787375E0,1.3761521E1,3.8273582E0,5.2803833E1,1.9692396E1,2.0329938E0,2.2658682E0,1.0636727E0,2.7935438E0,5.062606E1,1.9714787E1,1.7113289E0,1.1683125E0,8.03961E0,3.4309819E0,1.0429262E1,6.2778544E0,1.2831023E4,5.544272E1,3.0235064E1,7.6883125E1,7.149351E1,1.6541092E1,3.216026E1,4.0676662E1,1.363037E0,4.177051E0,2.6734276E1,1.6704563E1,4.391384E1,1.5321356E1,1.3473211E1,1.1287471E0,1.7890013E1,1.1127855E0,3.4582644E0,1.8204736E0,9.57101E0,4.1905117E0,2.459816E0,1.3675423E0,4.8236824E1,4.5670094E0,9.560486E0,1.0131911E1,1.009902E0,1.0230918E0,1.449349E0,1.3441947E0,4.7401623E1,3.2244408E0,3.3711712E0,1.6343615E1,2.5444171E0,5.495193E0,1.3556426E0,2.0753393E0,4.9678345E0,5.461428E0,1.4569978E0,4.8208566E0],"tree_param":{"num_deleted":"0","num_feature":"128","num_nodes":"101","size_leaf_vector":"1"}},{"base_weights":[-7.177608E-4,-3.7765822E-1,6.2728156E-3,-4.016545E-1,9.997836E-1,1.086887E-2,-5.551029E-1,-4.1771504E-1,6.512764E-1,5.7632397E-3,5.0431776E-1,-8.2965106E-1,-2.861677E-1,-4.4074434E-1,7.959007E-1,9.325633E-4,5.332975E-1,5.931313E-1,-4.647998E-1,1.2870498E-1,-8.766969E-1,-3.4070256E-1,4.9165303E-1,-4.5655453E-1,4.8697084E-1,7.365158E-1,-6.653327E-2,7.7505903E-3,-3.4857443E-1,9.396202E-1,1.7022929E-1,1.8561773E-1,7.1644676E-1,-7.2763634E-1,3.404505E-1,-1.0718887E0,-5.951163E-1,-2.2909065E-1,-7.200111E-1,-2.389578E-1,2.8230625E-1,-2.753714E-1,2.3613569E-1,6.121484E-3,-2.662192E-1,-1.9674136E-1,5.0694454E-1,3.829987E-2,5.1447856E-1,1.7101438E-1,-2.3905614E-1,-2.2039358E-1,3.3910102E-1,1.013438E0,3.314105E-1,-4.7508854E-1,-2.0009378E-1,-3.316142E-1,-5.6996644E-1,-2.0535746E-1,-5.99993E-1,5.5780974E-3,-3.3210588E-1,-1.3532946E-1,-6.1672837E-1],"categories":[],"categories_nodes":[],"categories_segments":[],"categories_sizes":[],"default_left":[0,0,0,0,0,0,0,0,0,0,1,0,0,0,0,0,0,0,0,0,0,0,0,0,0,0,0,0,0,0,0,0,0,0,0,0,0,0,0,0,0,0,0,0,0,0,0,0,0,0,0,0,0,0,0,0,0,0,0,0,0,0,0,0,0],"id":13,"left_children":[1,3,5,7,-1,9,11,13,-1,15,17,19,21,23,25,27,29,31,33,-1,35,37,-1,39,-1,-1,41,43,45,47,49,51,53,55,-1,57,59,61,63,-1,-1,-1,-1,-1,-1,-1,-1,-1,-1,-1,-1,-1,-1,-1,-1,-1,-1,-1,-1,-1,-1,-1,-1,-1,-1],"loss_changes":[3.5557335E1,1.4818935E1,3.4188633E1,7.224579E0,0E0,3.3106323E1,7.707699E0,7.129879E0,0E0,3.3149193E1,1.1858463E1,2.9218864E0,4.203962E0,5.7831154E0,2.9439497E0,3.0721937E1,1.7252995E1,6.084015E0,4.06629E0,0E0,2.152008E0,2.134952E0,0E0,5.4335556E0,0E0,0E0,1.0689198E0,3.069398E1,1.5492725E1,4.198559E0,7.2428055E0,9.583272E0,5.3061104E0,3.5783815E-1,0E0,4.2884827E-2,2.0758514E0,4.5486107E0,2.408104E0,0E0,0E0,0E0,0E0,0E0,0E0,0E0,0E0,0E0,0E0,0E0,0E0,0E0,0E0,0E0,0E0,0E0,0E0,0E0,0E0,0E0,0E0,0E0,0E0,0E0,0E0],"parents":[2147483647,0,0,1,1,2,2,3,3,5,5,6,6,7,7,9,9,10,10,11,11,12,12,13,13,14,14,15,15,16,16,17,17,18,18,20,20,21,21,23,23,26,26,27,27,28,28,29,29,30,30,31,31,32,32,33,33,35,35,36,36,37,37,38,38],"right_children":[2,4,6,8,-1,10,12,14,-1,16,18,20,22,24,26,28,30,32,34,-1,36,38,-1,40,-1,-1,42,44,46,48,50,52,54,56,-1,58,60,62,64,-1,-1,-1,-1,-1,-1,-1,-1,-1,-1,-1,-1,-1,-1,-1,-1,-1,-1,-1,-1,-1,-1,-1,-1,-1,-1],"split_conditions":[1E0,1E0,1E0,1E0,9.997836E-1,1E0,8E0,1E0,6.512764E-1,1E0,1E0,3.4E1,5.5E1,1E0,3.8E1,1E0,1.5E1,1E0,3.6E1,1.2870498E-1,5E0,2E1,4.9165303E-1,1E0,4.8697084E-1,7.365158E-1,6.4E1,1E0,1E0,3E0,2.00001E0,8E0,2E0,1.2E1,3.404505E-1,1.3E1,3E0,1.18E2,1E0,-2.389578E-1,2.8230625E-1,-2.753714E-1,2.3613569E-1,6.121484E-3,-2.662192E-1,-1.9674136E-1,5.0694454E-1,3.829987E-2,5.1447856E-1,1.7101438E-1,-2.3905614E-1,-2.2039358E-1,3.3910102E-1,1.013438E0,3.314105E-1,-4.7508854E-1,-2.0009378E-1,-3.316142E-1,-5.6996644E-1,-2.0535746E-1,-5.99993E-1,5.5780974E-3,-3.3210588E-1,-1.3532946E-1,-6.1672837E-1],"split_indices":[0,37,12,65,0,42,0,76,0,39,8,4,7,60,7,6,7,5,7,0,0,0,0,112,0,0,7,20,124,0,8,0,0,0,0,7,1,4,8,0,0,0,0,0,0,0,0,0,0,0,0,0,0,0,0,0,0,0,0,0,0,0,0,0,0],"split_type":[0,0,0,0,0,0,0,0,0,0,0,0,0,0,0,0,0,0,0,0,0,0,0,0,0,0,0,0,0,0,0,0,0,0,0,0,0,0,0,0,0,0,0,0,0,0,0,0,0,0,0,0,0,0,0,0,0,0,0,0,0,0,0,0,0],"sum_hessian":[1.3492187E4,2.4469888E2,1.3247487E4,2.4307625E2,1.6226318E0,1.3140882E4,1.0660543E2,2.4155472E2,1.5215305E0,1.300731E4,1.335727E2,5.172051E1,5.4884922E1,2.3768137E2,3.873353E0,1.2890273E4,1.1703558E2,1.2271464E2,1.085806E1,1.9600189E0,4.976049E1,5.3325737E1,1.5591824E0,2.3572424E2,1.9571229E0,1.7731719E0,2.100181E0,1.2644587E4,2.4568716E2,5.4478607E1,6.2556973E1,2.9089487E1,9.3625145E1,9.128727E0,1.7293332E0,2.7730803E1,2.2029688E1,4.2441307E1,1.0884429E1,2.3141542E2,4.3088274E0,1.094461E0,1.00572E0,1.2541267E4,1.033197E2,2.3853595E2,7.1512084E0,5.284663E0,4.9193947E1,4.9826305E1,1.2730666E1,1.2851618E1,1.623787E1,2.2341244E0,9.139102E1,4.3027406E0,4.8259864E0,5.4922733E0,2.223853E1,1.8169518E1,3.86017E0,2.7971529E1,1.446978E1,6.6189046E0,4.2655244E0],"tree_param":{"num_deleted":"0","num_feature":"128","num_nodes":"65","size_leaf_vector":"1"}},{"base_weights":[-1.2173465E-3,-4.8640603E-1,1.2561148E-3,5.5270838E-3,-5.4147243E-1,7.654795E-2,-2.889237E-2,-1.7233974E-1,-8.9915514E-1,8.563184E-2,-5.2933526E-1,-3.7167754E-2,4.0594673E-1,3.1833857E-1,-5.861988E-1,-3.454528E-1,-1.058493E0,9.972721E-2,-2.961027E-1,-2.9239568E-1,-9.779664E-1,-4.505191E-2,4.4059125E-1,6.005767E-1,-9.187152E-2,-5.931978E-1,5.7857746E-1,4.9907982E-1,-8.469032E-1,-7.7895576E-1,2.1991722E-1,-1.1214988E0,-4.237393E-1,5.437483E-2,-2.1109292E-1,-1.2968822E-1,-6.965192E-1,-2.0967227E-1,1.9120534E-1,6.433897E-3,-5.3935474E-1,2.846027E-2,-3.8106993E-2,5.5947214E-1,1.22646086E-1,-1.6385888E-1,3.161138E-1,-1.3644128E-1,4.4340995E-1,-7.307253E-2,-5.499466E-1,-5.6538653E-1,3.761097E-1,-2.9850692E-1,4.3474254E-1,-4.939153E-1,5.7736975E-1,-1.3696067E-1,-5.115704E-1,5.7377124E-1,-2.3987283E-1,-4.1386154E-1,-7.3218834E-1,-4.561479E-1,3.413461E-1],"categories":[],"categories_nodes":[],"categories_segments":[],"categories_sizes":[],"default_left":[0,0,0,0,0,0,0,0,0,0,0,0,0,0,0,0,0,0,0,0,0,0,0,0,0,0,0,0,0,0,0,0,0,0,0,0,0,0,0,0,0,0,0,0,0,0,0,0,0,0,0,0,0,0,0,0,0,0,0,0,0,0,0,0,0],"id":14,"left_children":[1,-1,3,5,7,9,11,13,15,17,19,21,23,25,27,29,31,33,35,37,39,41,43,45,47,49,51,53,55,57,59,61,63,-1,-1,-1,-1,-1,-1,-1,-1,-1,-1,-1,-1,-1,-1,-1,-1,-1,-1,-1,-1,-1,-1,-1,-1,-1,-1,-1,-1,-1,-1,-1,-1],"loss_changes":[3.2209286E1,0E0,3.0992283E1,3.243025E1,1.3628695E1,2.3880373E1,3.2171093E1,1.0870783E1,4.2911835E0,2.299197E1,6.5287457E0,3.3054314E1,1.6232857E1,6.207306E0,8.597414E0,3.425987E0,1.1446457E0,1.9429504E1,5.7710075E0,3.8764534E0,2.1829815E0,2.7423222E1,1.8600227E1,3.7379684E0,8.709627E0,1.1947246E0,6.708668E0,3.0466032E0,7.8168373E0,6.7381907E-1,4.797136E0,2.4382286E0,3.4686513E0,0E0,0E0,0E0,0E0,0E0,0E0,0E0,0E0,0E0,0E0,0E0,0E0,0E0,0E0,0E0,0E0,0E0,0E0,0E0,0E0,0E0,0E0,0E0,0E0,0E0,0E0,0E0,0E0,0E0,0E0,0E0,0E0],"parents":[2147483647,0,0,2,2,3,3,4,4,5,5,6,6,7,7,8,8,9,9,10,10,11,11,12,12,13,13,14,14,15,15,16,16,17,17,18,18,19,19,20,20,21,21,22,22,23,23,24,24,25,25,26,26,27,27,28,28,29,29,30,30,31,31,32,32],"right_children":[2,-1,4,6,8,10,12,14,16,18,20,22,24,26,28,30,32,34,36,38,40,42,44,46,48,50,52,54,56,58,60,62,64,-1,-1,-1,-1,-1,-1,-1,-1,-1,-1,-1,-1,-1,-1,-1,-1,-1,-1,-1,-1,-1,-1,-1,-1,-1,-1,-1,-1,-1,-1,-1,-1],"split_conditions":[1E0,-4.8640603E-1,1E0,1.6E1,1.09E2,1E0,1E0,1E0,4E0,1E0,1.25E2,1E0,1E0,1E0,6.1E1,1.3E1,3.2E1,1E0,2.19E2,2E1,6.25E1,6.6E1,4E0,1.8E1,1.9E1,1E0,3E0,6.75E1,1.06E2,7E0,7.25E1,1.2E1,3E0,5.437483E-2,-2.1109292E-1,-1.2968822E-1,-6.965192E-1,-2.0967227E-1,1.9120534E-1,6.433897E-3,-5.3935474E-1,2.846027E-2,-3.8106993E-2,5.5947214E-1,1.22646086E-1,-1.6385888E-1,3.161138E-1,-1.3644128E-1,4.4340995E-1,-7.307253E-2,-5.499466E-1,-5.6538653E-1,3.761097E-1,-2.9850692E-1,4.3474254E-1,-4.939153E-1,5.7736975E-1,-1.3696067E-1,-5.115704E-1,5.7377124E-1,-2.3987283E-1,-4.1386154E-1,-7.3218834E-1,-4.561479E-1,3.413461E-1],"split_indices":[3,0,116,7,4,67,87,1,0,58,4,21,8,5,4,7,7,66,4,0,2,4,0,7,0,8,7,2,4,7,2,7,1,0,0,0,0,0,0,0,0,0,0,0,0,0,0,0,0,0,0,0,0,0,0,0,0,0,0,0,0,0,0,0,0],"split_type":[0,0,0,0,0,0,0,0,0,0,0,0,0,0,0,0,0,0,0,0,0,0,0,0,0,0,0,0,0,0,0,0,0,0,0,0,0,0,0,0,0,0,0,0,0,0,0,0,0,0,0,0,0,0,0,0,0,0,0,0,0,0,0,0,0],"sum_hessian":[1.34011455E4,3.3033493E1,1.3368111E4,1.3264716E4,1.0339604E2,4.329673E3,8.935043E3,5.161282E1,5.178322E1,4.266564E3,6.310908E1,8.769073E3,1.6596895E2,2.3720362E1,2.789246E1,1.2279557E1,3.950366E1,4.1153457E3,1.5121849E2,4.237889E1,2.0730188E1,8.627604E3,1.4147018E2,1.1917081E2,4.679815E1,4.983892E0,1.873647E1,5.2254086E0,2.2667051E1,6.7365E0,5.5430574E0,3.5239002E1,4.2646585E0,4.0461897E3,6.9155876E1,1.4751599E2,3.702496E0,3.5987305E1,6.3915896E0,1.9937198E0,1.873647E1,2.0192229E3,6.6083804E3,3.056749E1,1.109027E2,3.6208227E0,1.1554999E2,4.0102318E1,6.6958313E0,3.3322797E0,1.6516125E0,1.2194982E0,1.7516972E1,1.1652993E0,4.060109E0,2.1649303E1,1.0177479E0,2.8870826E0,3.8494172E0,2.1080422E0,3.4350154E0,2.0817087E1,1.4421913E1,3.0800786E0,1.18458E0],"tree_param":{"num_deleted":"0","num_feature":"128","num_nodes":"65","size_leaf_vector":"1"}},{"base_weights":[-1.505451E-3,3.1617696E-3,-5.055706E-1,1.0719619E-2,-2.8656325E-1,-9.126483E-1,-2.3844144E-1,5.8535635E-3,4.7266185E-1,-7.328601E-2,-5.0077945E-1,-5.9243256E-1,-1.1000739E0,-1.1092702E0,-5.5532828E-2,2.4225588E-3,6.328802E-1,5.300285E-1,-1.3749143E-1,3.3257443E-2,-5.2067065E-1,-5.254847E-1,5.5583465E-1,3.7543357E-3,-6.7586035E-1,-1.2188467E0,-2.680624E-1,-1.2660894E0,-2.6943165E-1,5.0194163E-2,-1.1406219E0,6.259963E-3,-5.51234E-1,9.6706045E-1,-1.17091805E-1,-8.26868E-2,5.8665067E-1,-6.195234E-1,7.701552E-1,7.962894E-2,-6.5328E-1,-6.3932073E-1,7.6614803E-1,-6.023002E-1,9.139267E-2,-2.3576456E-1,2.8902233E-1,-5.459743E-1,-3.7465128E-1,-1.2831883E0,-5.914066E-1,-7.349442E-1,2.6161802E-1,-6.908247E-1,-5.9745405E-2,1.3848485E-1,-3.291802E-1,2.3941608E-1,-5.462516E-1,-6.47491E-1,-1.5926757E-1,5.9285886E-3,-1.7466938E-1,-3.1340647E-1,4.30613E-2,9.3781143E-1,4.0056768E-1,-2.2345641E-1,4.6827194E-1,1.1983886E-1,-6.830703E-1,3.4894365E-1,1.2139451E-1,-4.3374583E-2,-4.9145624E-1,-2.8117746E-1,6.570449E-1,5.428781E-2,-4.630026E-1,5.76865E-2,-5.4551035E-1,2.3373397E-1,-4.0954268E-1,-3.1212088E-1,2.7712283E-1,-3.267561E-1,2.428452E-1,2.6584277E-1,-2.9714566E-1,-3.5871503E-1,-6.8537027E-1,-4.0792403E-1,-1.1427246E-2,-1.3946046E-1,-4.514581E-1,-3.848097E-1,1.5991674E-1,1.5199865E-1,-3.518943E-1],"categories":[],"categories_nodes":[],"categories_segments":[],"categories_sizes":[],"default_left":[0,0,0,0,0,0,0,0,1,0,0,0,0,0,0,0,0,0,0,0,0,0,0,0,0,0,0,0,0,0,0,0,0,0,0,0,0,0,0,0,0,0,0,0,0,0,0,0,0,0,0,0,0,0,0,0,0,0,0,0,0,0,0,0,0,0,0,0,0,0,0,0,0,0,0,0,0,0,0,0,0,0,0,0,0,0,0,0,0,0,0,0,0,0,0,0,0,0,0],"id":15,"left_children":[1,3,5,7,9,11,13,15,17,19,21,23,25,27,29,31,33,35,37,39,41,43,-1,45,47,49,51,53,55,57,59,61,63,65,67,69,71,73,75,77,79,81,-1,83,85,-1,-1,-1,87,89,91,93,-1,-1,-1,-1,-1,95,97,-1,-1,-1,-1,-1,-1,-1,-1,-1,-1,-1,-1,-1,-1,-1,-1,-1,-1,-1,-1,-1,-1,-1,-1,-1,-1,-1,-1,-1,-1,-1,-1,-1,-1,-1,-1,-1,-1,-1,-1],"loss_changes":[3.138588E1,2.8948591E1,1.3091738E1,2.8958025E1,1.5318972E1,2.2374954E0,1.1924902E1,2.7429152E1,4.7733517E0,8.1010685E0,7.2571144E0,9.9436283E-1,2.5587578E0,1.3723068E0,7.3127456E0,2.6948055E1,1.7503113E1,4.3142242E0,5.8738313E0,4.442564E0,8.939889E0,7.9050674E0,0E0,1.2121586E0,1.7839713E0,2.6126862E-1,2.2057338E0,1.2516689E0,8.8732374E-1,6.7428594E0,3.0539227E-1,2.5074486E1,4.2596016E0,5.749546E0,8.160949E0,4.9934974E0,4.1404686E0,1.5817719E0,4.1631927E0,3.8870783E0,3.098398E0,6.670024E0,0E0,4.087719E0,5.9604526E0,0E0,0E0,0E0,2.639649E0,1.0952759E-1,5.179677E-1,1.7493486E-2,0E0,0E0,0E0,0E0,0E0,3.9115443E0,2.144744E0,0E0,0E0,0E0,0E0,0E0,0E0,0E0,0E0,0E0,0E0,0E0,0E0,0E0,0E0,0E0,0E0,0E0,0E0,0E0,0E0,0E0,0E0,0E0,0E0,0E0,0E0,0E0,0E0,0E0,0E0,0E0,0E0,0E0,0E0,0E0,0E0,0E0,0E0,0E0,0E0],"parents":[2147483647,0,0,1,1,2,2,3,3,4,4,5,5,6,6,7,7,8,8,9,9,10,10,11,11,12,12,13,13,14,14,15,15,16,16,17,17,18,18,19,19,20,20,21,21,23,23,24,24,25,25,26,26,27,27,28,28,29,29,30,30,31,31,32,32,33,33,34,34,35,35,36,36,37,37,38,38,39,39,40,40,41,41,43,43,44,44,48,48,49,49,50,50,51,51,57,57,58,58],"right_children":[2,4,6,8,10,12,14,16,18,20,22,24,26,28,30,32,34,36,38,40,42,44,-1,46,48,50,52,54,56,58,60,62,64,66,68,70,72,74,76,78,80,82,-1,84,86,-1,-1,-1,88,90,92,94,-1,-1,-1,-1,-1,96,98,-1,-1,-1,-1,-1,-1,-1,-1,-1,-1,-1,-1,-1,-1,-1,-1,-1,-1,-1,-1,-1,-1,-1,-1,-1,-1,-1,-1,-1,-1,-1,-1,-1,-1,-1,-1,-1,-1,-1,-1],"split_conditions":[1E0,9.1E1,7E0,1E0,7.5E1,1E1,1E0,1E0,1E0,1.54E2,1E0,5.5E1,1E0,2.3E1,4E0,1E0,1E0,4.6E1,8.75E1,2.3E1,1E0,1.25E2,5.5583465E-1,4.2E1,1E2,1.49E2,2.8E1,4.6E1,1.5E1,2E1,1E0,5E0,2.3E1,4E0,5.2E1,4.4E1,3E0,7.75E1,7E0,1E0,1E0,5.25E1,7.6614803E-1,1E0,3E0,-2.3576456E-1,2.8902233E-1,-5.459743E-1,1.07E2,5.4E1,4E0,5E0,2.6161802E-1,-6.908247E-1,-5.9745405E-2,1.3848485E-1,-3.291802E-1,5.75E1,6.75E1,-6.47491E-1,-1.5926757E-1,5.9285886E-3,-1.7466938E-1,-3.1340647E-1,4.30613E-2,9.3781143E-1,4.0056768E-1,-2.2345641E-1,4.6827194E-1,1.1983886E-1,-6.830703E-1,3.4894365E-1,1.2139451E-1,-4.3374583E-2,-4.9145624E-1,-2.8117746E-1,6.570449E-1,5.428781E-2,-4.630026E-1,5.76865E-2,-5.4551035E-1,2.3373397E-1,-4.0954268E-1,-3.1212088E-1,2.7712283E-1,-3.267561E-1,2.428452E-1,2.6584277E-1,-2.9714566E-1,-3.5871503E-1,-6.8537027E-1,-4.0792403E-1,-1.1427246E-2,-1.3946046E-1,-4.514581E-1,-3.848097E-1,1.5991674E-1,1.5199865E-1,-3.518943E-1],"split_indices":[34,7,0,123,4,7,5,106,8,7,72,4,1,0,1,104,8,4,2,0,82,4,0,4,4,4,7,7,7,7,8,1,0,0,7,4,1,2,0,90,5,2,0,91,0,0,0,0,4,4,0,0,0,0,0,0,0,2,2,0,0,0,0,0,0,0,0,0,0,0,0,0,0,0,0,0,0,0,0,0,0,0,0,0,0,0,0,0,0,0,0,0,0,0,0,0,0,0,0],"split_type":[0,0,0,0,0,0,0,0,0,0,0,0,0,0,0,0,0,0,0,0,0,0,0,0,0,0,0,0,0,0,0,0,0,0,0,0,0,0,0,0,0,0,0,0,0,0,0,0,0,0,0,0,0,0,0,0,0,0,0,0,0,0,0,0,0,0,0,0,0,0,0,0,0,0,0,0,0,0,0,0,0,0,0,0,0,0,0,0,0,0,0,0,0,0,0,0,0,0,0],"sum_hessian":[1.3339349E4,1.3217955E4,1.21393456E2,1.2882853E4,3.3510275E2,4.714015E1,7.42533E1,1.27495625E4,1.3329E2,1.6859192E2,1.6651083E2,1.8940792E1,2.8199356E1,1.20098295E1,6.2243473E1,1.2681177E4,6.838582E1,1.21955086E2,1.1334905E1,1.369123E2,3.1679634E1,1.6466205E2,1.8487716E0,2.4423563E0,1.6498436E1,2.4269814E1,3.929543E0,9.692462E0,2.3173683E0,5.758623E1,4.6572437E0,1.259487E4,8.630659E1,4.7106262E1,2.1279556E1,1.027777E1,1.11677315E2,7.6105447E0,3.72436E0,1.2907787E2,7.834423E0,3.0599726E1,1.0799077E0,1.4644934E2,1.8212713E1,1.4342803E0,1.0080762E0,5.825671E0,1.0672765E1,2.1064598E1,3.2052147E0,2.5161703E0,1.4133729E0,8.618815E0,1.0736461E0,1.0833076E0,1.2340606E0,4.4171467E1,1.3414764E1,3.4367082E0,1.2205354E0,1.2400647E4,1.9422267E2,7.717194E1,9.1346445E0,5.6830935E0,4.142317E1,1.664499E1,4.6345663E0,8.864526E0,1.4132435E0,8.360286E1,2.8074455E1,3.588327E0,4.022218E0,1.0697825E0,2.6545775E0,1.2633345E2,2.744413E0,3.1099408E0,4.724482E0,4.051947E0,2.654778E1,1.4417438E2,2.274969E0,6.076195E0,1.21365185E1,1.8047628E0,8.868002E0,4.055092E0,1.7009506E1,1.9861896E0,1.2190253E0,1.3935026E0,1.1226677E0,2.627881E0,4.1543583E1,1.951665E0,1.14630995E1],"tree_param":{"num_deleted":"0","num_feature":"128","num_nodes":"99","size_leaf_vector":"1"}},{"base_weights":[-1.8913178E-3,-5.8284374E-3,4.6443123E-1,-1.0573857E-2,3.8210854E-1,7.585128E-1,3.5164377E-1,-1.4892796E-2,4.2187053E-1,4.70212E-1,-6.31391E-1,5.2155274E-1,1.2718196E0,4.362381E-1,-1.266427E-1,-1.0950658E-2,-4.480734E-1,3.0707848E-1,7.200129E-1,-9.851086E-2,6.3552696E-1,1.5903717E-1,-8.32132E-1,1.0459353E0,2.7253023E-1,1.4683774E-1,1.3945895E0,-5.9542185E-1,4.8660713E-1,3.4344622E-1,-6.488675E-1,-1.5243483E-2,3.8928294E-1,-4.8127213E-1,8.797948E-1,2.0770988E-1,6.1940664E-1,9.7474957E-1,3.1245524E-1,9.520753E-1,-2.1592201E-1,3.42202E-1,8.242121E-1,-1.0238351E0,-2.981271E-1,6.6386655E-2,5.9593046E-1,5.8731216E-1,5.682909E-2,7.475472E-1,2.2534186E-1,-7.343887E-2,-3.5487938E-1,-8.5358106E-2,5.491702E-1,5.969731E-1,-3.1830567E-1,-6.593679E-2,5.525446E-4,2.1483667E-1,-1.641281E-1,-3.4118605E-1,-1.1715724E-1,7.664628E-1,-1.1460188E-1,-4.1268408E-1,1.2175336E-1,3.972785E-1,-9.532424E-2,1.6742112E-1,6.430365E-1,4.9165803E-1,-1.532491E-1,7.671956E-1,-1.00626886E-1,-6.0807128E-2,-4.222256E-1,2.0306896E-1,-4.9361342E-1,4.973023E-1,1.4735855E-1,-5.7077616E-1,-1.5298688E-1,-2.7966478E-1,9.424388E-2,-3.529954E-1,1.0306504E-1,2.0625013E-1,-2.160883E-1,2.921262E-1,-2.7441493E-1,4.447108E-1,8.709196E-2],"categories":[],"categories_nodes":[],"categories_segments":[],"categories_sizes":[],"default_left":[0,0,0,0,0,0,0,0,0,0,0,0,0,0,0,0,0,0,0,0,0,0,0,0,0,0,0,0,0,0,0,0,0,0,0,0,0,0,0,0,0,0,0,0,0,0,0,0,0,0,0,0,0,0,0,0,0,0,0,0,0,0,0,0,0,0,0,0,0,0,0,0,0,0,0,0,0,0,0,0,0,0,0,0,0,0,0,0,0,0,0,0,0],"id":16,"left_children":[1,3,5,7,9,11,13,15,17,19,21,23,25,27,29,31,33,35,37,39,41,-1,43,45,47,-1,49,51,53,55,-1,57,59,61,63,65,67,69,71,73,75,77,79,81,83,-1,-1,-1,85,-1,-1,-1,-1,87,89,91,-1,-1,-1,-1,-1,-1,-1,-1,-1,-1,-1,-1,-1,-1,-1,-1,-1,-1,-1,-1,-1,-1,-1,-1,-1,-1,-1,-1,-1,-1,-1,-1,-1,-1,-1,-1,-1],"loss_changes":[2.4387829E1,2.4252096E1,3.4220123E0,2.4311562E1,1.4512459E1,2.98135E0,3.3829842E0,2.1999557E1,4.1841946E0,1.3887299E1,2.7728167E0,2.6133466E0,6.4344215E-1,3.932973E0,7.6771636E0,2.194748E1,5.54521E0,2.8097706E0,3.3331547E0,4.3972297E0,6.030754E0,0E0,8.350992E-1,7.4711466E-1,3.1247015E0,0E0,3.9970398E-2,8.6196065E-2,2.4586287E0,2.9054904E0,0E0,2.4093685E1,4.069767E0,5.5015144E0,2.6601372E0,2.9128547E0,3.3221884E0,3.7709045E0,6.5085416E0,2.727119E0,1.7574074E0,4.341429E0,5.905224E0,3.086624E-1,6.5876085E-1,0E0,0E0,0E0,1.7727106E0,0E0,0E0,0E0,0E0,1.4751265E0,2.6660385E0,9.0731883E-1,0E0,0E0,0E0,0E0,0E0,0E0,0E0,0E0,0E0,0E0,0E0,0E0,0E0,0E0,0E0,0E0,0E0,0E0,0E0,0E0,0E0,0E0,0E0,0E0,0E0,0E0,0E0,0E0,0E0,0E0,0E0,0E0,0E0,0E0,0E0,0E0,0E0],"parents":[2147483647,0,0,1,1,2,2,3,3,4,4,5,5,6,6,7,7,8,8,9,9,10,10,11,11,12,12,13,13,14,14,15,15,16,16,17,17,18,18,19,19,20,20,22,22,23,23,24,24,26,26,27,27,28,28,29,29,31,31,32,32,33,33,34,34,35,35,36,36,37,37,38,38,39,39,40,40,41,41,42,42,43,43,44,44,48,48,53,53,54,54,55,55],"right_children":[2,4,6,8,10,12,14,16,18,20,22,24,26,28,30,32,34,36,38,40,42,-1,44,46,48,-1,50,52,54,56,-1,58,60,62,64,66,68,70,72,74,76,78,80,82,84,-1,-1,-1,86,-1,-1,-1,-1,88,90,92,-1,-1,-1,-1,-1,-1,-1,-1,-1,-1,-1,-1,-1,-1,-1,-1,-1,-1,-1,-1,-1,-1,-1,-1,-1,-1,-1,-1,-1,-1,-1,-1,-1,-1,-1,-1,-1],"split_conditions":[1E0,1E0,6.75E1,1E0,4E0,1.37E2,1.69E2,3.1E1,1.6E1,4E0,7.75E1,2.4E1,1.1E1,2E0,2.8E1,1E0,1E0,1.36E2,2.3E1,4.75E1,7.25E1,1.5903717E-1,1.23E2,1.2E1,4.9E1,1.4683774E-1,4.6E1,6.4E1,1.5E1,2.13E2,-6.488675E-1,3E0,2.5E1,2E0,2E0,6E0,1E1,7.6E1,8.6E1,3.3E1,3E0,1.9E2,2.00001E0,3.3E1,1.9E1,6.6386655E-2,5.9593046E-1,5.8731216E-1,6.1E1,7.475472E-1,2.2534186E-1,-7.343887E-2,-3.5487938E-1,1.2E1,2.9E1,6E0,-3.1830567E-1,-6.593679E-2,5.525446E-4,2.1483667E-1,-1.641281E-1,-3.4118605E-1,-1.1715724E-1,7.664628E-1,-1.1460188E-1,-4.1268408E-1,1.2175336E-1,3.972785E-1,-9.532424E-2,1.6742112E-1,6.430365E-1,4.9165803E-1,-1.532491E-1,7.671956E-1,-1.00626886E-1,-6.0807128E-2,-4.222256E-1,2.0306896E-1,-4.9361342E-1,4.973023E-1,1.4735855E-1,-5.7077616E-1,-1.5298688E-1,-2.7966478E-1,9.424388E-2,-3.529954E-1,1.0306504E-1,2.0625013E-1,-2.160883E-1,2.921262E-1,-2.7441493E-1,4.447108E-1,8.709196E-2],"split_indices":[80,124,2,45,1,4,4,0,0,0,2,7,7,0,7,109,55,4,0,2,2,0,4,7,4,0,7,4,7,4,0,0,0,1,1,7,0,4,4,7,1,4,8,7,0,0,0,0,4,0,0,0,0,7,0,0,0,0,0,0,0,0,0,0,0,0,0,0,0,0,0,0,0,0,0,0,0,0,0,0,0,0,0,0,0,0,0,0,0,0,0,0,0],"split_type":[0,0,0,0,0,0,0,0,0,0,0,0,0,0,0,0,0,0,0,0,0,0,0,0,0,0,0,0,0,0,0,0,0,0,0,0,0,0,0,0,0,0,0,0,0,0,0,0,0,0,0,0,0,0,0,0,0,0,0,0,0,0,0,0,0,0,0,0,0,0,0,0,0,0,0,0,0,0,0,0,0,0,0,0,0,0,0,0,0,0,0,0,0],"sum_hessian":[1.3280891E4,1.3170679E4,1.10211365E2,1.3012478E4,1.5820174E2,2.8964449E1,8.124692E1,1.2884759E4,1.27718E2,1.4604233E2,1.2159403E1,2.1195803E1,7.7686453E0,6.911117E1,1.213575E1,1.2769575E4,1.15183586E2,9.3679214E1,3.4038788E1,3.298166E1,1.1306067E2,2.0201218E0,1.0139281E1,5.7942734E0,1.540153E1,1.2446043E0,6.5240407E0,2.7134302E0,6.6397736E1,9.163966E0,2.9717836E0,1.2635017E4,1.3455875E2,1.1299607E2,2.187516E0,7.233162E1,2.1347591E1,2.0090128E1,1.3948662E1,2.6008196E0,3.038084E1,4.535953E1,6.770114E1,6.7859187E0,3.3533623E0,1.0615098E0,4.7327633E0,2.1141658E0,1.3287364E1,5.368474E0,1.1555668E0,1.0152407E0,1.6981895E0,6.510742E0,5.9886997E1,7.5911293E0,1.5728372E0,1.552497E3,1.108252E4,1.2776785E2,6.790893E0,6.13087E1,5.1687374E1,1.1361395E0,1.0513763E0,1.6837069E0,7.064791E1,1.7568138E1,3.7794542E0,7.2544885E0,1.2835639E1,6.411163E0,7.5374985E0,1.5086836E0,1.0921361E0,2.745486E1,2.9259787E0,4.39408E1,1.4187326E0,5.055427E1,1.7146866E1,5.3228474E0,1.4630711E0,2.0848424E0,1.2685198E0,1.5646248E0,1.1722739E1,2.5955062E0,3.915236E0,5.84862E1,1.4007992E0,3.8348305E0,3.7562985E0],"tree_param":{"num_deleted":"0","num_feature":"128","num_nodes":"93","size_leaf_vector":"1"}},{"base_weights":[-8.959945E-4,1.897467E-2,-8.584034E-2,2.2660103E-2,-8.134562E-1,-3.076876E-1,-4.0490407E-2,1.648861E-2,5.109337E-1,-4.3683207E-1,-1.3312004E0,-3.197953E-1,1.4059172E0,-4.877835E-2,8.8873225E-1,2.2337636E-2,-4.751517E-1,1.1130159E0,2.01449E-1,-7.427821E-1,4.059074E-1,-6.126829E-1,-1.5662409E0,-3.436062E-1,5.931368E-1,8.8991815E-1,1.788177E-1,-3.846355E-2,-7.6538944E-1,2.5339893E-1,1.3426702E0,2.7377319E-2,-4.4387203E-1,-5.205751E-1,9.353126E-1,6.9375694E-1,1.7298963E0,3.1907848E-1,-3.6049566E-1,-9.0823144E-1,-3.1694077E-2,5.880405E-1,-2.115028E-1,-4.4870594E-1,-5.4649007E-2,-1.6902548E0,-1.853629E-1,-3.5789722E-1,6.8681383E-1,9.341554E-1,-4.0348858E-1,-3.0454852E-2,-9.309201E-1,-2.8896156E-1,-1.007871E0,5.558597E-1,-1.4221294E-1,8.7262416E-1,5.976588E-1,-2.3858452E-2,2.8726956E-2,-4.1212136E-1,-7.696952E-2,-5.548037E-1,-2.0704304E-1,7.411993E-1,-1.4992209E-1,4.4224203E-1,-2.3271413E-1,9.483823E-1,3.148573E-2,-1.9143923E-1,1.8671933E-1,1.288906E-1,-6.057829E-1,-1.0047562E-1,-5.502522E-1,-3.4298584E-1,1.6696474E-1,-5.831243E-1,1.6845153E-1,1.02027096E-1,-1.3632528E-1,-8.928658E-1,-2.9346249E-1,-1.8403603E-1,3.5333338E-1,-3.3685073E-1,6.335632E-1,6.6329163E-1,1.0287023E-1,5.455885E-2,-3.7822163E-1,-1.9075688E-2,3.9418843E-1,-6.362574E-2,-5.688518E-1,-4.0037808E-1,3.2735113E-2,4.382493E-2,-5.4291904E-1,-3.2963666E-1,2.3344728E-1,7.8636914E-2,5.812939E-1],"categories":[],"categories_nodes":[],"categories_segments":[],"categories_sizes":[],"default_left":[0,0,0,0,0,0,0,0,0,0,0,0,0,0,0,0,0,0,0,0,0,0,0,0,0,0,0,0,0,0,0,0,0,0,0,0,0,0,0,0,0,0,0,0,0,0,0,0,0,0,0,0,0,0,0,0,0,0,0,0,0,0,0,0,0,0,0,0,0,0,0,0,0,0,0,0,0,0,0,0,0,0,0,0,0,0,0,0,0,0,0,0,0,0,0,0,0,0,0,0,0,0,0,0,0],"id":17,"left_children":[1,3,5,7,9,11,13,15,17,19,21,23,25,27,29,31,33,35,37,39,41,43,45,47,49,-1,-1,51,53,55,57,59,61,63,65,67,69,71,73,75,77,-1,79,-1,81,83,-1,85,87,89,91,93,95,97,99,-1,101,-1,103,-1,-1,-1,-1,-1,-1,-1,-1,-1,-1,-1,-1,-1,-1,-1,-1,-1,-1,-1,-1,-1,-1,-1,-1,-1,-1,-1,-1,-1,-1,-1,-1,-1,-1,-1,-1,-1,-1,-1,-1,-1,-1,-1,-1,-1,-1],"loss_changes":[2.2275028E1,3.282951E1,2.515797E1,3.208075E1,8.616175E0,9.256493E0,1.6049597E1,3.0253546E1,2.4536484E1,7.72568E0,2.3124008E0,9.383846E0,6.034498E-1,1.5204441E1,4.9737463E0,2.4434132E1,8.411766E0,1.0410873E1,5.997299E0,2.4981165E0,4.2030525E0,9.707267E-1,1.4425812E0,6.315876E0,4.14993E0,0E0,0E0,1.4500581E1,3.0810642E0,3.1840143E0,2.1104584E0,2.3230213E1,1.2138477E1,7.0975494E0,3.2939413E0,6.6900587E0,4.7472115E0,2.971137E0,8.664572E0,2.143465E0,1.4467539E0,0E0,3.2534184E0,0E0,2.3798212E-1,2.5434875E-1,0E0,4.671097E0,5.576074E0,2.177621E0,7.2095E-1,1.2733382E1,2.8541079E0,2.0927408E0,1.7132053E0,0E0,2.5081298E0,0E0,1.1131493E0,0E0,0E0,0E0,0E0,0E0,0E0,0E0,0E0,0E0,0E0,0E0,0E0,0E0,0E0,0E0,0E0,0E0,0E0,0E0,0E0,0E0,0E0,0E0,0E0,0E0,0E0,0E0,0E0,0E0,0E0,0E0,0E0,0E0,0E0,0E0,0E0,0E0,0E0,0E0,0E0,0E0,0E0,0E0,0E0,0E0,0E0],"parents":[2147483647,0,0,1,1,2,2,3,3,4,4,5,5,6,6,7,7,8,8,9,9,10,10,11,11,12,12,13,13,14,14,15,15,16,16,17,17,18,18,19,19,20,20,21,21,22,22,23,23,24,24,27,27,28,28,29,29,30,30,31,31,32,32,33,33,34,34,35,35,36,36,37,37,38,38,39,39,40,40,42,42,44,44,45,45,47,47,48,48,49,49,50,50,51,51,52,52,53,53,54,54,56,56,58,58],"right_children":[2,4,6,8,10,12,14,16,18,20,22,24,26,28,30,32,34,36,38,40,42,44,46,48,50,-1,-1,52,54,56,58,60,62,64,66,68,70,72,74,76,78,-1,80,-1,82,84,-1,86,88,90,92,94,96,98,100,-1,102,-1,104,-1,-1,-1,-1,-1,-1,-1,-1,-1,-1,-1,-1,-1,-1,-1,-1,-1,-1,-1,-1,-1,-1,-1,-1,-1,-1,-1,-1,-1,-1,-1,-1,-1,-1,-1,-1,-1,-1,-1,-1,-1,-1,-1,-1,-1,-1],"split_conditions":[3E0,1E0,6E0,1E0,1.15E2,1E0,1E0,1E0,1E0,1.2E1,4E0,1E0,2.6E1,1E0,3.2E1,1E0,7.2E1,3.1E1,1.9E1,1E2,1.6E1,3E0,1.7E1,1E0,2.00001E0,8.8991815E-1,1.788177E-1,1E0,1E0,1.8E1,4.6E1,1E0,6E0,1E0,9.8E1,2.1E1,6.2E1,2E0,8.25E1,5E1,4E0,5.880405E-1,7.25E1,-4.4870594E-1,1.9E1,2E2,-1.853629E-1,1E0,4E0,8.75E1,2.1E1,1E0,7E1,8.9E1,6.75E1,5.558597E-1,1.9E1,8.7262416E-1,1.8E1,-2.3858452E-2,2.8726956E-2,-4.1212136E-1,-7.696952E-2,-5.548037E-1,-2.0704304E-1,7.411993E-1,-1.4992209E-1,4.4224203E-1,-2.3271413E-1,9.483823E-1,3.148573E-2,-1.9143923E-1,1.8671933E-1,1.288906E-1,-6.057829E-1,-1.0047562E-1,-5.502522E-1,-3.4298584E-1,1.6696474E-1,-5.831243E-1,1.6845153E-1,1.02027096E-1,-1.3632528E-1,-8.928658E-1,-2.9346249E-1,-1.8403603E-1,3.5333338E-1,-3.3685073E-1,6.335632E-1,6.6329163E-1,1.0287023E-1,5.455885E-2,-3.7822163E-1,-1.9075688E-2,3.9418843E-1,-6.362574E-2,-5.688518E-1,-4.0037808E-1,3.2735113E-2,4.382493E-2,-5.4291904E-1,-3.2963666E-1,2.3344728E-1,7.8636914E-2,5.812939E-1],"split_indices":[1,61,0,81,4,77,21,100,5,0,0,39,7,44,7,43,7,7,0,4,0,0,0,72,8,0,0,76,5,7,7,5,0,5,7,0,7,0,2,4,0,0,2,0,7,4,0,36,0,2,7,47,4,4,2,0,0,0,0,0,0,0,0,0,0,0,0,0,0,0,0,0,0,0,0,0,0,0,0,0,0,0,0,0,0,0,0,0,0,0,0,0,0,0,0,0,0,0,0,0,0,0,0,0,0],"split_type":[0,0,0,0,0,0,0,0,0,0,0,0,0,0,0,0,0,0,0,0,0,0,0,0,0,0,0,0,0,0,0,0,0,0,0,0,0,0,0,0,0,0,0,0,0,0,0,0,0,0,0,0,0,0,0,0,0,0,0,0,0,0,0,0,0,0,0,0,0,0,0,0,0,0,0,0,0,0,0,0,0,0,0,0,0,0,0,0,0,0,0,0,0,0,0,0,0,0,0,0,0,0,0,0,0],"sum_hessian":[1.3194918E4,1.0694075E4,2.5008423E3,1.0647906E4,4.6168846E1,4.234726E2,2.0773696E3,1.0516023E4,1.3188261E2,2.7794174E1,1.8374672E1,4.2130917E2,2.16344E0,2.059944E3,1.7425598E1,1.0393329E4,1.2269448E2,4.3893787E1,8.798883E1,2.0478298E1,7.3158774E0,5.4181466E0,1.2956525E1,4.1120776E2,1.01014E1,1.0802553E0,1.0831846E0,2.031753E3,2.81911E1,7.9112315E0,9.514365E0,1.0283111E4,1.10218155E2,1.1947768E2,3.2168076E0,2.739772E1,1.6496065E1,7.3115974E1,1.4872863E1,1.638804E1,4.0902567E0,2.8526037E0,4.463274E0,3.1849186E0,2.2332277E0,1.1363889E1,1.5926358E0,4.0622644E2,4.981336E0,7.572853E0,2.528547E0,2.0147076E3,1.7045395E1,1.0247834E1,1.7943264E1,1.9248805E0,5.986351E0,5.305098E0,4.2092676E0,2.940581E3,7.3425303E3,4.6876625E1,6.3341534E1,1.6850584E1,1.0262709E2,2.0906355E0,1.1261721E0,2.3730234E1,3.667487E0,1.4869649E1,1.6264163E0,4.820833E0,6.8295135E1,9.018387E0,5.8544765E0,3.9399571E0,1.2448084E1,1.1522158E0,2.938041E0,1.2173375E0,3.2459364E0,1.0505339E0,1.1826937E0,9.889599E0,1.4742901E0,4.0302863E2,3.1978018E0,1.4413143E0,3.5400217E0,4.3877797E0,3.1850734E0,1.3127897E0,1.2157574E0,1.9968915E3,1.7816162E1,3.8188272E0,1.3226568E1,3.6778307E0,6.570004E0,1.183908E0,1.6759356E1,3.1932766E0,2.7930746E0,3.0837529E0,1.1255149E0],"tree_param":{"num_deleted":"0","num_feature":"128","num_nodes":"105","size_leaf_vector":"1"}},{"base_weights":[-1.2293085E-3,1.5253056E-3,-6.0027206E-1,3.8438959E-3,-7.043266E-1,-8.318943E-1,-2.4102871E-1,4.3076248E-4,4.7201484E-1,-7.6778966E-1,3.3678898E-1,-6.717848E-2,-9.7602385E-1,-3.4870058E-1,4.6946654E-1,2.728455E-3,-6.555895E-1,2.6403648E-1,1.3046271E0,-4.6814466E-1,-1.1620872E0,-3.621333E-1,3.8195628E-1,-7.319151E-1,-1.6236203E0,-4.8239183E-1,3.2861453E-1,5.8432394E-3,-4.8454204E-1,-4.107834E-1,-1.2683917E0,3.4933603E-1,-4.3880144E-1,1.3640337E0,1.21102504E-1,-5.449558E-1,2.1975523E-1,-6.400668E-1,-8.1582534E-1,3.7738144E-1,-4.621474E-2,-6.055154E-1,-4.4955736E-1,-8.733712E-1,-2.4138135E-1,-1.019069E0,-2.4588937E-1,-1.2659237E-1,3.8175803E-1,4.5991563E-3,-2.2621636E-1,-8.681984E-2,-4.4587937E-1,-4.520607E-1,-2.856147E-2,-7.21976E-1,-1.4120156E-1,-3.8384226E-1,2.0066424E-1,5.0638324E-1,9.262616E-1,1.7094007E-1,-3.0440328E-1,-5.5021185E-1,-1.5393762E-2,1.78961E-1,-3.5601312E-1,-5.1173244E-2,-6.623774E-1,2.7878167E-2,-4.0680394E-1,-1.153331E-1,2.02587E-2],"categories":[],"categories_nodes":[],"categories_segments":[],"categories_sizes":[],"default_left":[0,0,0,0,0,0,0,0,0,0,0,0,0,0,0,0,0,0,0,1,0,0,0,0,0,0,0,0,0,0,0,0,0,0,0,0,0,0,0,0,0,0,0,0,0,0,0,0,0,0,0,0,0,0,0,0,0,0,0,0,0,0,0,0,0,0,0,0,0,0,0,0,0],"id":18,"left_children":[1,3,5,7,9,11,13,15,17,19,-1,21,23,25,-1,27,29,31,33,35,37,-1,39,41,43,45,47,49,51,53,55,57,-1,59,-1,61,-1,63,-1,-1,-1,-1,65,-1,-1,67,69,71,-1,-1,-1,-1,-1,-1,-1,-1,-1,-1,-1,-1,-1,-1,-1,-1,-1,-1,-1,-1,-1,-1,-1,-1,-1],"loss_changes":[2.1626219E1,2.135389E1,4.791109E0,2.0780058E1,4.2528133E0,3.9094696E0,3.4939625E0,1.9463522E1,1.5953903E1,4.3362293E0,0E0,2.2814915E0,3.5971355E0,2.292721E0,0E0,1.953208E1,6.2399654E0,7.7623463E0,8.408928E-1,1.9925427E0,3.1622372E0,0E0,8.9919126E-1,2.6760397E0,2.054863E-1,2.2992196E0,9.835748E-1,1.9664133E1,1.0193983E1,5.8250346E0,1.736206E0,4.4870014E0,0E0,1.1024704E0,0E0,1.5461435E0,0E0,2.707088E0,0E0,0E0,0E0,0E0,3.7663982E0,0E0,0E0,1.4972668E0,2.6589956E0,6.233366E-2,0E0,0E0,0E0,0E0,0E0,0E0,0E0,0E0,0E0,0E0,0E0,0E0,0E0,0E0,0E0,0E0,0E0,0E0,0E0,0E0,0E0,0E0,0E0,0E0,0E0],"parents":[2147483647,0,0,1,1,2,2,3,3,4,4,5,5,6,6,7,7,8,8,9,9,11,11,12,12,13,13,15,15,16,16,17,17,18,18,19,19,20,20,22,22,23,23,24,24,25,25,26,26,27,27,28,28,29,29,30,30,31,31,33,33,35,35,37,37,42,42,45,45,46,46,47,47],"right_children":[2,4,6,8,10,12,14,16,18,20,-1,22,24,26,-1,28,30,32,34,36,38,-1,40,42,44,46,48,50,52,54,56,58,-1,60,-1,62,-1,64,-1,-1,-1,-1,66,-1,-1,68,70,72,-1,-1,-1,-1,-1,-1,-1,-1,-1,-1,-1,-1,-1,-1,-1,-1,-1,-1,-1,-1,-1,-1,-1,-1,-1],"split_conditions":[1E0,1E0,1E0,1E0,2.4E1,1.6E1,2.3E1,1E0,1.9E1,1.19E2,3.3678898E-1,1E0,1.4E2,1.54E2,4.6946654E-1,1E0,2.3E1,1E0,4.5E1,1E0,8E0,-3.621333E-1,8.25E1,1E0,1.95E2,5E0,2.3E1,1E0,1E0,1E0,1.5E1,2E0,-4.3880144E-1,1.1E2,1.21102504E-1,5.75E1,2.1975523E-1,1.5E2,-8.1582534E-1,3.7738144E-1,-4.621474E-2,-6.055154E-1,2.6E1,-8.733712E-1,-2.4138135E-1,6.25E1,9.2E1,7E0,3.8175803E-1,4.5991563E-3,-2.2621636E-1,-8.681984E-2,-4.4587937E-1,-4.520607E-1,-2.856147E-2,-7.21976E-1,-1.4120156E-1,-3.8384226E-1,2.0066424E-1,5.0638324E-1,9.262616E-1,1.7094007E-1,-3.0440328E-1,-5.5021185E-1,-1.5393762E-2,1.78961E-1,-3.5601312E-1,-5.1173244E-2,-6.623774E-1,2.7878167E-2,-4.0680394E-1,-1.153331E-1,2.02587E-2],"split_indices":[24,73,8,102,0,7,0,125,0,4,0,5,4,4,0,113,7,6,7,8,7,0,2,5,4,0,7,122,1,5,0,0,0,4,0,2,0,4,0,0,0,0,7,0,0,2,4,0,0,0,0,0,0,0,0,0,0,0,0,0,0,0,0,0,0,0,0,0,0,0,0,0,0],"split_type":[0,0,0,0,0,0,0,0,0,0,0,0,0,0,0,0,0,0,0,0,0,0,0,0,0,0,0,0,0,0,0,0,0,0,0,0,0,0,0,0,0,0,0,0,0,0,0,0,0,0,0,0,0,0,0,0,0,0,0,0,0,0,0,0,0,0,0,0,0,0,0,0,0],"sum_hessian":[1.3104198E4,1.304521E4,5.8989117E1,1.300349E4,4.171945E1,3.5065163E1,2.3923954E1,1.291037E4,9.3120285E1,4.0305843E1,1.4136068E0,5.793324E0,2.9271837E1,2.2569006E1,1.3549473E0,1.2866302E4,4.4068016E1,7.556261E1,1.7557678E1,2.414456E1,1.6161285E1,2.10342E0,3.6899042E0,2.2805576E1,6.466263E0,1.908894E1,3.480066E0,1.2785561E4,8.074127E1,3.2682243E1,1.1385774E1,7.095508E1,4.6075273E0,1.635905E1,1.1986272E0,2.2629148E1,1.5154114E0,8.772207E0,7.389078E0,1.735215E0,1.9546891E0,7.236836E0,1.556874E1,5.357048E0,1.1092147E0,4.8268414E0,1.4262099E1,2.0467117E0,1.4333544E0,1.2693609E4,9.1950966E1,4.6594017E1,3.414725E1,1.299643E1,1.9685814E1,9.27062E0,2.1151524E0,2.5435433E0,6.841154E1,1.1303846E1,5.055206E0,1.2273862E0,2.1401762E1,4.5375986E0,4.2346087E0,3.7299526E0,1.1838787E1,1.5408349E0,3.2860062E0,9.9024315E0,4.3596673E0,1.0268655E0,1.0198462E0],"tree_param":{"num_deleted":"0","num_feature":"128","num_nodes":"73","size_leaf_vector":"1"}},{"base_weights":[-1.2491447E-3,1.5693649E-3,-5.2780867E-1,-4.770006E-1,3.1202112E-3,-6.241726E-1,6.488757E-1,1.3081845E-2,-1.4200908E-1,-1.1305736E0,-4.5788217E-1,8.579524E-1,-3.9373767E-1,2.5205731E-2,-1.2781852E-1,-1.517404E-1,1.1480495E0,-1.4333382E0,-5.4340845E-1,2.1504688E-1,-5.9529567E-1,-3.8694286E-1,1.00934274E-1,2.1178605E-2,4.2722577E-1,-1.4372307E-1,6.0539424E-1,-1.639252E-1,5.162124E-1,4.1620213E-1,9.471305E-1,-8.281391E-1,-6.3505226E-1,1.23410925E-1,-8.3176994E-1,-6.009158E-1,5.642504E-1,5.432567E-1,-6.6933155E-1,8.266212E-3,1.8131717E-1,2.5958315E-2,2.9051045E-1,-4.1190606E-2,-1.5603353E-1,4.0824884E-1,-2.3327677E-1,-8.7050185E-2,2.5409067E-1,3.7462103E-1,-1.9758481E-1,-3.773709E-1,6.541774E-1,-1.2741493E-1,-4.0787998E-1,-4.8679006E-1,-1.0747895E-1,4.5891818E-1,-3.5302334E-2,-1.032627E0,-2.781814E-1],"categories":[],"categories_nodes":[],"categories_segments":[],"categories_sizes":[],"default_left":[0,0,1,0,0,0,0,1,0,0,0,0,0,0,0,0,0,0,0,0,0,0,0,0,0,0,0,0,0,0,0,0,0,0,0,0,0,0,0,0,0,0,0,0,0,0,0,0,0,0,0,0,0,0,0,0,0,0,0,0,0],"id":19,"left_children":[1,3,5,-1,7,9,11,13,15,17,19,-1,21,23,25,27,29,31,33,35,37,-1,-1,39,41,43,45,47,49,51,-1,-1,53,-1,55,-1,57,-1,59,-1,-1,-1,-1,-1,-1,-1,-1,-1,-1,-1,-1,-1,-1,-1,-1,-1,-1,-1,-1,-1,-1],"loss_changes":[1.9432959E1,1.9304863E1,8.30998E0,0E0,1.880294E1,4.9515343E0,7.091839E0,2.0793133E1,1.0661577E1,1.9542732E0,4.8044806E0,0E0,1.000863E0,1.813465E1,1.1333211E1,6.8399734E0,2.690956E0,6.4481163E-1,1.7642145E0,5.2847843E0,5.989518E0,0E0,0E0,1.759859E1,6.382366E0,9.730045E0,5.057704E0,5.668247E0,3.505302E0,5.686465E0,0E0,0E0,4.6551585E-2,0E0,2.49156E-1,0E0,1.8942997E0,0E0,5.3321476E0,0E0,0E0,0E0,0E0,0E0,0E0,0E0,0E0,0E0,0E0,0E0,0E0,0E0,0E0,0E0,0E0,0E0,0E0,0E0,0E0,0E0,0E0],"parents":[2147483647,0,0,1,1,2,2,4,4,5,5,6,6,7,7,8,8,9,9,10,10,12,12,13,13,14,14,15,15,16,16,17,17,18,18,19,19,20,20,23,23,24,24,25,25,26,26,27,27,28,28,29,29,32,32,34,34,36,36,38,38],"right_children":[2,4,6,-1,8,10,12,14,16,18,20,-1,22,24,26,28,30,32,34,36,38,-1,-1,40,42,44,46,48,50,52,-1,-1,54,-1,56,-1,58,-1,60,-1,-1,-1,-1,-1,-1,-1,-1,-1,-1,-1,-1,-1,-1,-1,-1,-1,-1,-1,-1,-1,-1],"split_conditions":[1E0,1E0,1E0,-4.770006E-1,1.87E2,1E0,1.12E2,1E0,1E0,3.5E1,7.1E1,8.579524E-1,1.8E1,1E0,1E0,1E0,2.09E2,8.75E1,4.3E1,2.2E1,8E0,-3.8694286E-1,1.00934274E-1,1E0,4E0,3.4E1,6.9E1,1E0,2.9E1,7E0,9.471305E-1,-8.281391E-1,1.6E1,1.23410925E-1,7.6E1,-6.009158E-1,5.2E1,5.432567E-1,1.2E1,8.266212E-3,1.8131717E-1,2.5958315E-2,2.9051045E-1,-4.1190606E-2,-1.5603353E-1,4.0824884E-1,-2.3327677E-1,-8.7050185E-2,2.5409067E-1,3.7462103E-1,-1.9758481E-1,-3.773709E-1,6.541774E-1,-1.2741493E-1,-4.0787998E-1,-4.8679006E-1,-1.0747895E-1,4.5891818E-1,-3.5302334E-2,-1.032627E0,-2.781814E-1],"split_indices":[17,3,8,0,4,5,4,8,60,7,4,0,0,91,19,56,4,2,7,7,7,0,0,105,0,7,7,78,7,0,0,0,0,0,7,0,7,0,7,0,0,0,0,0,0,0,0,0,0,0,0,0,0,0,0,0,0,0,0,0,0],"split_type":[0,0,0,0,0,0,0,0,0,0,0,0,0,0,0,0,0,0,0,0,0,0,0,0,0,0,0,0,0,0,0,0,0,0,0,0,0,0,0,0,0,0,0,0,0,0,0,0,0,0,0,0,0,0,0,0,0,0,0,0,0],"sum_hessian":[1.309243E4,1.3023715E4,6.8714874E1,2.0107512E1,1.3003607E4,6.394748E1,4.7673965E0,1.2169225E4,8.343823E2,1.4374457E1,4.957302E1,2.0369613E0,2.7304354E0,1.1205831E4,9.6339374E2,8.290112E2,5.3711205E0,8.533267E0,5.8411903E0,8.310523E0,4.12625E1,1.4839646E0,1.2464707E0,1.1095735E4,1.1009583E2,9.437268E2,1.9666958E1,8.149004E2,1.4110832E1,3.4981053E0,1.8730152E0,5.8302417E0,2.7030256E0,1.6001549E0,4.241036E0,1.1604422E0,7.15008E0,1.1632159E0,4.0099285E1,1.0947816E4,1.479183E2,3.239043E1,7.77054E1,6.927787E2,2.5094812E2,1.6630203E1,3.0367548E0,8.0347736E2,1.1423046E1,1.1379208E1,2.7316241E0,1.5793031E0,1.918802E0,1.6472554E0,1.05577E0,2.9779694E0,1.2630662E0,4.3060575E0,2.844023E0,1.708328E0,3.8390957E1],"tree_param":{"num_deleted":"0","num_feature":"128","num_nodes":"61","size_leaf_vector":"1"}},{"base_weights":[-1.0185153E-3,-4.3136105E-3,4.261049E-1,-7.954346E-3,3.7450457E-1,-1.5572023E-1,5.6473744E-1,-5.3989175E-3,-5.4109275E-1,5.2353555E-1,-2.3069926E-2,7.7228343E-1,-3.938917E-1,3.8220638E-1,8.161285E-1,-1.4641733E-3,-3.5549098E-1,-9.075361E-1,-3.3237314E-1,-7.861297E-1,5.6489056E-1,-3.046367E-1,2.565077E-1,-1.300662E-1,6.020963E-1,-8.29234E-1,-1.7658566E-1,4.9269232E-1,-2.6165172E-1,4.0221325E-1,1.0881648E0,-5.2317786E-3,3.5265434E-1,-2.4962085E-1,-1.5800354E0,1.504752E-1,-9.970641E-1,-6.510625E-1,-1.12771414E-1,8.078308E-2,-6.9876784E-1,-5.026773E-1,5.9881264E-1,3.1534183E-1,-5.9748787E-1,4.789568E-1,-3.7587944E-1,-4.942935E-1,-4.3523703E-2,3.8578126E-1,-6.180228E-1,5.958932E-1,-3.545203E-1,-6.475931E-1,5.6793684E-1,-5.46715E-1,6.360054E-1,2.2062844E-1,1.365318E0,-2.009401E-2,1.6738119E-2,9.840249E-2,3.861706E-1,1.834015E-1,-1.7678016E-1,-9.2747456E-1,-7.8727186E-2,-6.213347E-1,-1.4285009E-1,-3.5464928E-1,5.3062513E-2,1.1647228E-1,-2.773209E-1,1.6254789E-1,-5.628278E-1,3.6327967E-1,1.23861805E-1,3.1075895E-1,-2.8731844E-1,-3.7090898E-1,8.260382E-2,3.3793512E-1,-3.992022E-1,3.9060077E-1,-1.8333304E-1,-4.6418568E-1,7.9033114E-2,4.1928613E-1,7.851116E-2,2.0309015E-1,-3.1864792E-1,3.367623E-2,-5.3629935E-1,-5.2093413E-2,-3.4431303E-1,4.7540736E-1,3.3057813E-2,4.0520942E-1,-3.870272E-1,7.509338E-1,-1.1573114E-1],"categories":[],"categories_nodes":[],"categories_segments":[],"categories_sizes":[],"default_left":[0,0,0,0,0,0,0,0,0,0,0,0,0,0,0,0,0,0,0,0,0,0,0,0,0,0,0,0,0,0,0,0,0,0,0,0,0,0,0,0,0,0,0,0,0,0,0,0,0,0,0,0,0,0,0,0,0,0,0,0,0,0,0,0,0,0,0,0,0,0,0,0,0,0,0,0,0,0,0,0,0,0,0,0,0,0,0,0,0,0,0,0,0,0,0,0,0,0,0,0,0],"id":20,"left_children":[1,3,5,7,9,11,13,15,17,19,21,23,25,27,29,31,33,35,37,39,41,43,45,-1,-1,47,49,51,53,55,57,59,61,63,65,-1,67,69,71,-1,-1,73,75,77,79,81,-1,-1,-1,83,85,87,89,91,-1,93,95,97,99,-1,-1,-1,-1,-1,-1,-1,-1,-1,-1,-1,-1,-1,-1,-1,-1,-1,-1,-1,-1,-1,-1,-1,-1,-1,-1,-1,-1,-1,-1,-1,-1,-1,-1,-1,-1,-1,-1,-1,-1,-1,-1],"loss_changes":[1.8333838E1,1.7831043E1,8.131842E0,1.7441925E1,7.304249E0,4.718808E0,3.3935432E0,1.755525E1,4.3693485E0,5.2947273E0,2.7950249E0,2.2828348E0,1.4198508E0,3.5907784E0,3.2880497E0,1.6817583E1,1.7968302E1,2.6353397E0,2.7600713E0,2.0565248E0,3.4661179E0,3.3934484E0,4.3660073E0,0E0,0E0,5.3392434E-1,3.2954612E0,3.8732805E0,4.932289E0,3.6108296E0,4.35841E0,1.687719E1,8.5276165E0,8.558661E0,4.0426273E0,0E0,3.196457E0,7.94374E-1,3.975672E0,0E0,0E0,2.0343146E0,3.6396847E0,2.0786865E0,1.4803691E0,4.3737526E0,0E0,0E0,0E0,2.0808916E0,1.9009802E0,3.884489E0,1.3720251E0,2.1183991E0,0E0,1.446135E-1,2.1372533E0,4.079737E0,3.5080376E0,0E0,0E0,0E0,0E0,0E0,0E0,0E0,0E0,0E0,0E0,0E0,0E0,0E0,0E0,0E0,0E0,0E0,0E0,0E0,0E0,0E0,0E0,0E0,0E0,0E0,0E0,0E0,0E0,0E0,0E0,0E0,0E0,0E0,0E0,0E0,0E0,0E0,0E0,0E0,0E0,0E0,0E0],"parents":[2147483647,0,0,1,1,2,2,3,3,4,4,5,5,6,6,7,7,8,8,9,9,10,10,11,11,12,12,13,13,14,14,15,15,16,16,17,17,18,18,19,19,20,20,21,21,22,22,25,25,26,26,27,27,28,28,29,29,30,30,31,31,32,32,33,33,34,34,36,36,37,37,38,38,41,41,42,42,43,43,44,44,45,45,49,49,50,50,51,51,52,52,53,53,55,55,56,56,57,57,58,58],"right_children":[2,4,6,8,10,12,14,16,18,20,22,24,26,28,30,32,34,36,38,40,42,44,46,-1,-1,48,50,52,54,56,58,60,62,64,66,-1,68,70,72,-1,-1,74,76,78,80,82,-1,-1,-1,84,86,88,90,92,-1,94,96,98,100,-1,-1,-1,-1,-1,-1,-1,-1,-1,-1,-1,-1,-1,-1,-1,-1,-1,-1,-1,-1,-1,-1,-1,-1,-1,-1,-1,-1,-1,-1,-1,-1,-1,-1,-1,-1,-1,-1,-1,-1,-1,-1],"split_conditions":[1E0,1E0,6.25E1,1E0,3.8E1,9E0,1.06E2,1E0,1E0,4.75E1,8E0,5.25E1,4E0,9.5E1,2E1,1E0,2.3E1,2E0,5E0,2.1E1,2.6E1,4E0,6.7E1,-1.300662E-1,6.020963E-1,5.5E1,2.2E1,4.5E1,3.3E1,3E0,1E0,8E0,2.00001E0,3E0,2.00001E0,1.504752E-1,3E0,1.58E2,8.75E1,8.078308E-2,-6.9876784E-1,2E1,8.75E1,2E0,6.6E1,2.3E1,-3.7587944E-1,-4.942935E-1,-4.3523703E-2,1.18E2,1E0,1E0,5E1,5E0,5.6793684E-1,1.1E1,1E0,3.5E1,5.6E1,-2.009401E-2,1.6738119E-2,9.840249E-2,3.861706E-1,1.834015E-1,-1.7678016E-1,-9.2747456E-1,-7.8727186E-2,-6.213347E-1,-1.4285009E-1,-3.5464928E-1,5.3062513E-2,1.1647228E-1,-2.773209E-1,1.6254789E-1,-5.628278E-1,3.6327967E-1,1.23861805E-1,3.1075895E-1,-2.8731844E-1,-3.7090898E-1,8.260382E-2,3.3793512E-1,-3.992022E-1,3.9060077E-1,-1.8333304E-1,-4.6418568E-1,7.9033114E-2,4.1928613E-1,7.851116E-2,2.0309015E-1,-3.1864792E-1,3.367623E-2,-5.3629935E-1,-5.2093413E-2,-3.4431303E-1,4.7540736E-1,3.3057813E-2,4.0520942E-1,-3.870272E-1,7.509338E-1,-1.1573114E-1],"split_indices":[50,111,2,84,7,7,4,22,5,2,0,2,0,4,7,72,0,0,0,7,4,0,7,0,0,7,7,7,7,0,5,0,8,0,8,0,1,4,2,0,0,4,2,1,7,0,0,0,0,4,1,8,4,0,0,7,8,7,7,0,0,0,0,0,0,0,0,0,0,0,0,0,0,0,0,0,0,0,0,0,0,0,0,0,0,0,0,0,0,0,0,0,0,0,0,0,0,0,0,0,0],"split_type":[0,0,0,0,0,0,0,0,0,0,0,0,0,0,0,0,0,0,0,0,0,0,0,0,0,0,0,0,0,0,0,0,0,0,0,0,0,0,0,0,0,0,0,0,0,0,0,0,0,0,0,0,0,0,0,0,0,0,0,0,0,0,0,0,0,0,0,0,0,0,0,0,0,0,0,0,0,0,0,0,0,0,0,0,0,0,0,0,0,0,0,0,0,0,0,0,0,0,0,0,0],"sum_hessian":[1.3024321E4,1.2925596E4,9.872616E1,1.2803522E4,1.22072754E2,1.8973454E1,7.975271E1,1.2743451E4,6.0071533E1,